digraph Tree {
node [shape=box, style="filled", color="black", fontname="helvetica"] ;
edge [fontname="helvetica"] ;
0 [label="marital-status_Married-civ-spouse <= 0.5\ngini = 0.364\nsamples = 39073\nvalue = [29735, 9338]\nclass = i", fillcolor="#eda977"] ;
1 [label="capital-gain <= 7055.5\ngini = 0.119\nsamples = 21131\nvalue = [19788, 1343]\nclass = i", fillcolor="#e78a46"] ;
0 -> 1 [labeldistance=2.5, labelangle=45, headlabel="True"] ;
2 [label="educational-num <= 13.5\ngini = 0.091\nsamples = 20772\nvalue = [19774, 998]\nclass = i", fillcolor="#e68743"] ;
1 -> 2 ;
3 [label="capital-loss <= 2218.5\ngini = 0.069\nsamples = 19647\nvalue = [18939, 708]\nclass = i", fillcolor="#e68640"] ;
2 -> 3 ;
4 [label="hours-per-week <= 42.5\ngini = 0.065\nsamples = 19552\nvalue = [18894, 658]\nclass = i", fillcolor="#e68540"] ;
3 -> 4 ;
5 [label="age <= 38.5\ngini = 0.039\nsamples = 15878\nvalue = [15561, 317]\nclass = i", fillcolor="#e6843d"] ;
4 -> 5 ;
6 [label="relationship_Wife <= 0.5\ngini = 0.018\nsamples = 10979\nvalue = [10880, 99]\nclass = i", fillcolor="#e5823b"] ;
5 -> 6 ;
7 [label="educational-num <= 12.5\ngini = 0.017\nsamples = 10963\nvalue = [10870, 93]\nclass = i", fillcolor="#e5823b"] ;
6 -> 7 ;
8 [label="age <= 28.5\ngini = 0.011\nsamples = 9503\nvalue = [9450, 53]\nclass = i", fillcolor="#e5823a"] ;
7 -> 8 ;
9 [label="marital-status_Married-AF-spouse <= 0.5\ngini = 0.005\nsamples = 6575\nvalue = [6560, 15]\nclass = i", fillcolor="#e58139"] ;
8 -> 9 ;
10 [label="fnlwgt <= 23776.5\ngini = 0.004\nsamples = 6572\nvalue = [6558, 14]\nclass = i", fillcolor="#e58139"] ;
9 -> 10 ;
11 [label="fnlwgt <= 23381.0\ngini = 0.159\nsamples = 23\nvalue = [21, 2]\nclass = i", fillcolor="#e78d4c"] ;
10 -> 11 ;
12 [label="gini = 0.0\nsamples = 21\nvalue = [21, 0]\nclass = i", fillcolor="#e58139"] ;
11 -> 12 ;
13 [label="gini = 0.0\nsamples = 2\nvalue = [0, 2]\nclass = n", fillcolor="#399de5"] ;
11 -> 13 ;
14 [label="native-country_Guatemala <= 0.5\ngini = 0.004\nsamples = 6549\nvalue = [6537, 12]\nclass = i", fillcolor="#e58139"] ;
10 -> 14 ;
15 [label="occupation_Protective-serv <= 0.5\ngini = 0.003\nsamples = 6528\nvalue = [6517, 11]\nclass = i", fillcolor="#e58139"] ;
14 -> 15 ;
16 [label="race_Asian-Pac-Islander <= 0.5\ngini = 0.003\nsamples = 6436\nvalue = [6427, 9]\nclass = i", fillcolor="#e58139"] ;
15 -> 16 ;
17 [label="age <= 21.5\ngini = 0.002\nsamples = 6266\nvalue = [6259, 7]\nclass = i", fillcolor="#e58139"] ;
16 -> 17 ;
18 [label="gini = 0.0\nsamples = 3256\nvalue = [3256, 0]\nclass = i", fillcolor="#e58139"] ;
17 -> 18 ;
19 [label="capital-loss <= 1534.0\ngini = 0.005\nsamples = 3010\nvalue = [3003, 7]\nclass = i", fillcolor="#e58139"] ;
17 -> 19 ;
20 [label="gender_Male <= 0.5\ngini = 0.004\nsamples = 2952\nvalue = [2946, 6]\nclass = i", fillcolor="#e58139"] ;
19 -> 20 ;
21 [label="gini = 0.0\nsamples = 1384\nvalue = [1384, 0]\nclass = i", fillcolor="#e58139"] ;
20 -> 21 ;
22 [label="relationship_Unmarried <= 0.5\ngini = 0.008\nsamples = 1568\nvalue = [1562, 6]\nclass = i", fillcolor="#e5813a"] ;
20 -> 22 ;
23 [label="occupation_Prof-specialty <= 0.5\ngini = 0.005\nsamples = 1451\nvalue = [1447, 4]\nclass = i", fillcolor="#e5813a"] ;
22 -> 23 ;
24 [label="age <= 22.5\ngini = 0.004\nsamples = 1413\nvalue = [1410, 3]\nclass = i", fillcolor="#e58139"] ;
23 -> 24 ;
25 [label="hours-per-week <= 33.5\ngini = 0.022\nsamples = 276\nvalue = [273, 3]\nclass = i", fillcolor="#e5823b"] ;
24 -> 25 ;
26 [label="hours-per-week <= 31.0\ngini = 0.062\nsamples = 93\nvalue = [90, 3]\nclass = i", fillcolor="#e68540"] ;
25 -> 26 ;
27 [label="native-country_United-States <= 0.5\ngini = 0.043\nsamples = 91\nvalue = [89, 2]\nclass = i", fillcolor="#e6843d"] ;
26 -> 27 ;
28 [label="fnlwgt <= 122442.5\ngini = 0.245\nsamples = 7\nvalue = [6, 1]\nclass = i", fillcolor="#e9965a"] ;
27 -> 28 ;
29 [label="gini = 0.0\nsamples = 1\nvalue = [0, 1]\nclass = n", fillcolor="#399de5"] ;
28 -> 29 ;
30 [label="gini = 0.0\nsamples = 6\nvalue = [6, 0]\nclass = i", fillcolor="#e58139"] ;
28 -> 30 ;
31 [label="occupation_Sales <= 0.5\ngini = 0.024\nsamples = 84\nvalue = [83, 1]\nclass = i", fillcolor="#e5833b"] ;
27 -> 31 ;
32 [label="gini = 0.0\nsamples = 70\nvalue = [70, 0]\nclass = i", fillcolor="#e58139"] ;
31 -> 32 ;
33 [label="relationship_Not-in-family <= 0.5\ngini = 0.133\nsamples = 14\nvalue = [13, 1]\nclass = i", fillcolor="#e78b48"] ;
31 -> 33 ;
34 [label="gini = 0.0\nsamples = 9\nvalue = [9, 0]\nclass = i", fillcolor="#e58139"] ;
33 -> 34 ;
35 [label="fnlwgt <= 155018.0\ngini = 0.32\nsamples = 5\nvalue = [4, 1]\nclass = i", fillcolor="#eca06a"] ;
33 -> 35 ;
36 [label="gini = 0.0\nsamples = 2\nvalue = [2, 0]\nclass = i", fillcolor="#e58139"] ;
35 -> 36 ;
37 [label="fnlwgt <= 188423.5\ngini = 0.444\nsamples = 3\nvalue = [2, 1]\nclass = i", fillcolor="#f2c09c"] ;
35 -> 37 ;
38 [label="gini = 0.0\nsamples = 1\nvalue = [0, 1]\nclass = n", fillcolor="#399de5"] ;
37 -> 38 ;
39 [label="gini = 0.0\nsamples = 2\nvalue = [2, 0]\nclass = i", fillcolor="#e58139"] ;
37 -> 39 ;
40 [label="occupation_Other-service <= 0.5\ngini = 0.5\nsamples = 2\nvalue = [1, 1]\nclass = i", fillcolor="#ffffff"] ;
26 -> 40 ;
41 [label="gini = 0.0\nsamples = 1\nvalue = [1, 0]\nclass = i", fillcolor="#e58139"] ;
40 -> 41 ;
42 [label="gini = 0.0\nsamples = 1\nvalue = [0, 1]\nclass = n", fillcolor="#399de5"] ;
40 -> 42 ;
43 [label="gini = 0.0\nsamples = 183\nvalue = [183, 0]\nclass = i", fillcolor="#e58139"] ;
25 -> 43 ;
44 [label="gini = 0.0\nsamples = 1137\nvalue = [1137, 0]\nclass = i", fillcolor="#e58139"] ;
24 -> 44 ;
45 [label="education_11th <= 0.5\ngini = 0.051\nsamples = 38\nvalue = [37, 1]\nclass = i", fillcolor="#e6843e"] ;
23 -> 45 ;
46 [label="gini = 0.0\nsamples = 36\nvalue = [36, 0]\nclass = i", fillcolor="#e58139"] ;
45 -> 46 ;
47 [label="marital-status_Never-married <= 0.5\ngini = 0.5\nsamples = 2\nvalue = [1, 1]\nclass = i", fillcolor="#ffffff"] ;
45 -> 47 ;
48 [label="gini = 0.0\nsamples = 1\nvalue = [1, 0]\nclass = i", fillcolor="#e58139"] ;
47 -> 48 ;
49 [label="gini = 0.0\nsamples = 1\nvalue = [0, 1]\nclass = n", fillcolor="#399de5"] ;
47 -> 49 ;
50 [label="occupation_Tech-support <= 0.5\ngini = 0.034\nsamples = 117\nvalue = [115, 2]\nclass = i", fillcolor="#e5833c"] ;
22 -> 50 ;
51 [label="education_Assoc-voc <= 0.5\ngini = 0.017\nsamples = 115\nvalue = [114, 1]\nclass = i", fillcolor="#e5823b"] ;
50 -> 51 ;
52 [label="gini = 0.0\nsamples = 109\nvalue = [109, 0]\nclass = i", fillcolor="#e58139"] ;
51 -> 52 ;
53 [label="fnlwgt <= 109503.5\ngini = 0.278\nsamples = 6\nvalue = [5, 1]\nclass = i", fillcolor="#ea9a61"] ;
51 -> 53 ;
54 [label="age <= 27.5\ngini = 0.5\nsamples = 2\nvalue = [1, 1]\nclass = i", fillcolor="#ffffff"] ;
53 -> 54 ;
55 [label="gini = 0.0\nsamples = 1\nvalue = [0, 1]\nclass = n", fillcolor="#399de5"] ;
54 -> 55 ;
56 [label="gini = 0.0\nsamples = 1\nvalue = [1, 0]\nclass = i", fillcolor="#e58139"] ;
54 -> 56 ;
57 [label="gini = 0.0\nsamples = 4\nvalue = [4, 0]\nclass = i", fillcolor="#e58139"] ;
53 -> 57 ;
58 [label="marital-status_Separated <= 0.5\ngini = 0.5\nsamples = 2\nvalue = [1, 1]\nclass = i", fillcolor="#ffffff"] ;
50 -> 58 ;
59 [label="gini = 0.0\nsamples = 1\nvalue = [1, 0]\nclass = i", fillcolor="#e58139"] ;
58 -> 59 ;
60 [label="gini = 0.0\nsamples = 1\nvalue = [0, 1]\nclass = n", fillcolor="#399de5"] ;
58 -> 60 ;
61 [label="capital-loss <= 1577.0\ngini = 0.034\nsamples = 58\nvalue = [57, 1]\nclass = i", fillcolor="#e5833c"] ;
19 -> 61 ;
62 [label="gini = 0.0\nsamples = 1\nvalue = [0, 1]\nclass = n", fillcolor="#399de5"] ;
61 -> 62 ;
63 [label="gini = 0.0\nsamples = 57\nvalue = [57, 0]\nclass = i", fillcolor="#e58139"] ;
61 -> 63 ;
64 [label="workclass_Self-emp-not-inc <= 0.5\ngini = 0.023\nsamples = 170\nvalue = [168, 2]\nclass = i", fillcolor="#e5823b"] ;
16 -> 64 ;
65 [label="occupation_Craft-repair <= 0.5\ngini = 0.012\nsamples = 165\nvalue = [164, 1]\nclass = i", fillcolor="#e5823a"] ;
64 -> 65 ;
66 [label="gini = 0.0\nsamples = 156\nvalue = [156, 0]\nclass = i", fillcolor="#e58139"] ;
65 -> 66 ;
67 [label="fnlwgt <= 234073.5\ngini = 0.198\nsamples = 9\nvalue = [8, 1]\nclass = i", fillcolor="#e89152"] ;
65 -> 67 ;
68 [label="gini = 0.0\nsamples = 6\nvalue = [6, 0]\nclass = i", fillcolor="#e58139"] ;
67 -> 68 ;
69 [label="fnlwgt <= 285773.5\ngini = 0.444\nsamples = 3\nvalue = [2, 1]\nclass = i", fillcolor="#f2c09c"] ;
67 -> 69 ;
70 [label="gini = 0.0\nsamples = 1\nvalue = [0, 1]\nclass = n", fillcolor="#399de5"] ;
69 -> 70 ;
71 [label="gini = 0.0\nsamples = 2\nvalue = [2, 0]\nclass = i", fillcolor="#e58139"] ;
69 -> 71 ;
72 [label="relationship_Not-in-family <= 0.5\ngini = 0.32\nsamples = 5\nvalue = [4, 1]\nclass = i", fillcolor="#eca06a"] ;
64 -> 72 ;
73 [label="gini = 0.0\nsamples = 3\nvalue = [3, 0]\nclass = i", fillcolor="#e58139"] ;
72 -> 73 ;
74 [label="fnlwgt <= 229343.5\ngini = 0.5\nsamples = 2\nvalue = [1, 1]\nclass = i", fillcolor="#ffffff"] ;
72 -> 74 ;
75 [label="gini = 0.0\nsamples = 1\nvalue = [0, 1]\nclass = n", fillcolor="#399de5"] ;
74 -> 75 ;
76 [label="gini = 0.0\nsamples = 1\nvalue = [1, 0]\nclass = i", fillcolor="#e58139"] ;
74 -> 76 ;
77 [label="workclass_Local-gov <= 0.5\ngini = 0.043\nsamples = 92\nvalue = [90, 2]\nclass = i", fillcolor="#e6843d"] ;
15 -> 77 ;
78 [label="gini = 0.0\nsamples = 62\nvalue = [62, 0]\nclass = i", fillcolor="#e58139"] ;
77 -> 78 ;
79 [label="fnlwgt <= 196863.0\ngini = 0.124\nsamples = 30\nvalue = [28, 2]\nclass = i", fillcolor="#e78a47"] ;
77 -> 79 ;
80 [label="gini = 0.0\nsamples = 18\nvalue = [18, 0]\nclass = i", fillcolor="#e58139"] ;
79 -> 80 ;
81 [label="fnlwgt <= 199791.0\ngini = 0.278\nsamples = 12\nvalue = [10, 2]\nclass = i", fillcolor="#ea9a61"] ;
79 -> 81 ;
82 [label="gini = 0.0\nsamples = 1\nvalue = [0, 1]\nclass = n", fillcolor="#399de5"] ;
81 -> 82 ;
83 [label="age <= 26.5\ngini = 0.165\nsamples = 11\nvalue = [10, 1]\nclass = i", fillcolor="#e88e4d"] ;
81 -> 83 ;
84 [label="gini = 0.0\nsamples = 8\nvalue = [8, 0]\nclass = i", fillcolor="#e58139"] ;
83 -> 84 ;
85 [label="education_HS-grad <= 0.5\ngini = 0.444\nsamples = 3\nvalue = [2, 1]\nclass = i", fillcolor="#f2c09c"] ;
83 -> 85 ;
86 [label="gini = 0.0\nsamples = 1\nvalue = [0, 1]\nclass = n", fillcolor="#399de5"] ;
85 -> 86 ;
87 [label="gini = 0.0\nsamples = 2\nvalue = [2, 0]\nclass = i", fillcolor="#e58139"] ;
85 -> 87 ;
88 [label="workclass_Local-gov <= 0.5\ngini = 0.091\nsamples = 21\nvalue = [20, 1]\nclass = i", fillcolor="#e68743"] ;
14 -> 88 ;
89 [label="gini = 0.0\nsamples = 18\nvalue = [18, 0]\nclass = i", fillcolor="#e58139"] ;
88 -> 89 ;
90 [label="relationship_Own-child <= 0.5\ngini = 0.444\nsamples = 3\nvalue = [2, 1]\nclass = i", fillcolor="#f2c09c"] ;
88 -> 90 ;
91 [label="gini = 0.0\nsamples = 1\nvalue = [0, 1]\nclass = n", fillcolor="#399de5"] ;
90 -> 91 ;
92 [label="gini = 0.0\nsamples = 2\nvalue = [2, 0]\nclass = i", fillcolor="#e58139"] ;
90 -> 92 ;
93 [label="fnlwgt <= 53716.5\ngini = 0.444\nsamples = 3\nvalue = [2, 1]\nclass = i", fillcolor="#f2c09c"] ;
9 -> 93 ;
94 [label="gini = 0.0\nsamples = 1\nvalue = [0, 1]\nclass = n", fillcolor="#399de5"] ;
93 -> 94 ;
95 [label="gini = 0.0\nsamples = 2\nvalue = [2, 0]\nclass = i", fillcolor="#e58139"] ;
93 -> 95 ;
96 [label="capital-gain <= 4718.5\ngini = 0.026\nsamples = 2928\nvalue = [2890, 38]\nclass = i", fillcolor="#e5833c"] ;
8 -> 96 ;
97 [label="educational-num <= 9.5\ngini = 0.024\nsamples = 2918\nvalue = [2882, 36]\nclass = i", fillcolor="#e5833b"] ;
96 -> 97 ;
98 [label="occupation_Prof-specialty <= 0.5\ngini = 0.01\nsamples = 1777\nvalue = [1768, 9]\nclass = i", fillcolor="#e5823a"] ;
97 -> 98 ;
99 [label="occupation_Protective-serv <= 0.5\ngini = 0.009\nsamples = 1747\nvalue = [1739, 8]\nclass = i", fillcolor="#e5823a"] ;
98 -> 99 ;
100 [label="education_7th-8th <= 0.5\ngini = 0.008\nsamples = 1717\nvalue = [1710, 7]\nclass = i", fillcolor="#e5823a"] ;
99 -> 100 ;
101 [label="fnlwgt <= 343886.0\ngini = 0.007\nsamples = 1671\nvalue = [1665, 6]\nclass = i", fillcolor="#e5813a"] ;
100 -> 101 ;
102 [label="fnlwgt <= 83458.5\ngini = 0.005\nsamples = 1507\nvalue = [1503, 4]\nclass = i", fillcolor="#e5813a"] ;
101 -> 102 ;
103 [label="fnlwgt <= 83410.5\ngini = 0.021\nsamples = 189\nvalue = [187, 2]\nclass = i", fillcolor="#e5823b"] ;
102 -> 103 ;
104 [label="workclass_Local-gov <= 0.5\ngini = 0.011\nsamples = 187\nvalue = [186, 1]\nclass = i", fillcolor="#e5823a"] ;
103 -> 104 ;
105 [label="gini = 0.0\nsamples = 180\nvalue = [180, 0]\nclass = i", fillcolor="#e58139"] ;
104 -> 105 ;
106 [label="age <= 30.5\ngini = 0.245\nsamples = 7\nvalue = [6, 1]\nclass = i", fillcolor="#e9965a"] ;
104 -> 106 ;
107 [label="gini = 0.0\nsamples = 1\nvalue = [0, 1]\nclass = n", fillcolor="#399de5"] ;
106 -> 107 ;
108 [label="gini = 0.0\nsamples = 6\nvalue = [6, 0]\nclass = i", fillcolor="#e58139"] ;
106 -> 108 ;
109 [label="education_HS-grad <= 0.5\ngini = 0.5\nsamples = 2\nvalue = [1, 1]\nclass = i", fillcolor="#ffffff"] ;
103 -> 109 ;
110 [label="gini = 0.0\nsamples = 1\nvalue = [0, 1]\nclass = n", fillcolor="#399de5"] ;
109 -> 110 ;
111 [label="gini = 0.0\nsamples = 1\nvalue = [1, 0]\nclass = i", fillcolor="#e58139"] ;
109 -> 111 ;
112 [label="occupation_Machine-op-inspct <= 0.5\ngini = 0.003\nsamples = 1318\nvalue = [1316, 2]\nclass = i", fillcolor="#e58139"] ;
102 -> 112 ;
113 [label="occupation_Adm-clerical <= 0.5\ngini = 0.002\nsamples = 1160\nvalue = [1159, 1]\nclass = i", fillcolor="#e58139"] ;
112 -> 113 ;
114 [label="gini = 0.0\nsamples = 965\nvalue = [965, 0]\nclass = i", fillcolor="#e58139"] ;
113 -> 114 ;
115 [label="hours-per-week <= 39.0\ngini = 0.01\nsamples = 195\nvalue = [194, 1]\nclass = i", fillcolor="#e5823a"] ;
113 -> 115 ;
116 [label="hours-per-week <= 37.5\ngini = 0.038\nsamples = 51\nvalue = [50, 1]\nclass = i", fillcolor="#e6843d"] ;
115 -> 116 ;
117 [label="gini = 0.0\nsamples = 38\nvalue = [38, 0]\nclass = i", fillcolor="#e58139"] ;
116 -> 117 ;
118 [label="age <= 32.5\ngini = 0.142\nsamples = 13\nvalue = [12, 1]\nclass = i", fillcolor="#e78c49"] ;
116 -> 118 ;
119 [label="fnlwgt <= 193668.0\ngini = 0.444\nsamples = 3\nvalue = [2, 1]\nclass = i", fillcolor="#f2c09c"] ;
118 -> 119 ;
120 [label="gini = 0.0\nsamples = 2\nvalue = [2, 0]\nclass = i", fillcolor="#e58139"] ;
119 -> 120 ;
121 [label="gini = 0.0\nsamples = 1\nvalue = [0, 1]\nclass = n", fillcolor="#399de5"] ;
119 -> 121 ;
122 [label="gini = 0.0\nsamples = 10\nvalue = [10, 0]\nclass = i", fillcolor="#e58139"] ;
118 -> 122 ;
123 [label="gini = 0.0\nsamples = 144\nvalue = [144, 0]\nclass = i", fillcolor="#e58139"] ;
115 -> 123 ;
124 [label="age <= 36.5\ngini = 0.013\nsamples = 158\nvalue = [157, 1]\nclass = i", fillcolor="#e5823a"] ;
112 -> 124 ;
125 [label="gini = 0.0\nsamples = 123\nvalue = [123, 0]\nclass = i", fillcolor="#e58139"] ;
124 -> 125 ;
126 [label="relationship_Unmarried <= 0.5\ngini = 0.056\nsamples = 35\nvalue = [34, 1]\nclass = i", fillcolor="#e6853f"] ;
124 -> 126 ;
127 [label="gini = 0.0\nsamples = 26\nvalue = [26, 0]\nclass = i", fillcolor="#e58139"] ;
126 -> 127 ;
128 [label="gender_Male <= 0.5\ngini = 0.198\nsamples = 9\nvalue = [8, 1]\nclass = i", fillcolor="#e89152"] ;
126 -> 128 ;
129 [label="gini = 0.0\nsamples = 7\nvalue = [7, 0]\nclass = i", fillcolor="#e58139"] ;
128 -> 129 ;
130 [label="fnlwgt <= 194697.5\ngini = 0.5\nsamples = 2\nvalue = [1, 1]\nclass = i", fillcolor="#ffffff"] ;
128 -> 130 ;
131 [label="gini = 0.0\nsamples = 1\nvalue = [0, 1]\nclass = n", fillcolor="#399de5"] ;
130 -> 131 ;
132 [label="gini = 0.0\nsamples = 1\nvalue = [1, 0]\nclass = i", fillcolor="#e58139"] ;
130 -> 132 ;
133 [label="fnlwgt <= 344889.0\ngini = 0.024\nsamples = 164\nvalue = [162, 2]\nclass = i", fillcolor="#e5833b"] ;
101 -> 133 ;
134 [label="gini = 0.0\nsamples = 1\nvalue = [0, 1]\nclass = n", fillcolor="#399de5"] ;
133 -> 134 ;
135 [label="fnlwgt <= 348605.0\ngini = 0.012\nsamples = 163\nvalue = [162, 1]\nclass = i", fillcolor="#e5823a"] ;
133 -> 135 ;
136 [label="fnlwgt <= 348504.0\ngini = 0.198\nsamples = 9\nvalue = [8, 1]\nclass = i", fillcolor="#e89152"] ;
135 -> 136 ;
137 [label="gini = 0.0\nsamples = 7\nvalue = [7, 0]\nclass = i", fillcolor="#e58139"] ;
136 -> 137 ;
138 [label="marital-status_Separated <= 0.5\ngini = 0.5\nsamples = 2\nvalue = [1, 1]\nclass = i", fillcolor="#ffffff"] ;
136 -> 138 ;
139 [label="gini = 0.0\nsamples = 1\nvalue = [0, 1]\nclass = n", fillcolor="#399de5"] ;
138 -> 139 ;
140 [label="gini = 0.0\nsamples = 1\nvalue = [1, 0]\nclass = i", fillcolor="#e58139"] ;
138 -> 140 ;
141 [label="gini = 0.0\nsamples = 154\nvalue = [154, 0]\nclass = i", fillcolor="#e58139"] ;
135 -> 141 ;
142 [label="occupation_Farming-fishing <= 0.5\ngini = 0.043\nsamples = 46\nvalue = [45, 1]\nclass = i", fillcolor="#e6843d"] ;
100 -> 142 ;
143 [label="gini = 0.0\nsamples = 44\nvalue = [44, 0]\nclass = i", fillcolor="#e58139"] ;
142 -> 143 ;
144 [label="fnlwgt <= 246270.0\ngini = 0.5\nsamples = 2\nvalue = [1, 1]\nclass = i", fillcolor="#ffffff"] ;
142 -> 144 ;
145 [label="gini = 0.0\nsamples = 1\nvalue = [0, 1]\nclass = n", fillcolor="#399de5"] ;
144 -> 145 ;
146 [label="gini = 0.0\nsamples = 1\nvalue = [1, 0]\nclass = i", fillcolor="#e58139"] ;
144 -> 146 ;
147 [label="marital-status_Separated <= 0.5\ngini = 0.064\nsamples = 30\nvalue = [29, 1]\nclass = i", fillcolor="#e68540"] ;
99 -> 147 ;
148 [label="gini = 0.0\nsamples = 26\nvalue = [26, 0]\nclass = i", fillcolor="#e58139"] ;
147 -> 148 ;
149 [label="fnlwgt <= 230294.0\ngini = 0.375\nsamples = 4\nvalue = [3, 1]\nclass = i", fillcolor="#eeab7b"] ;
147 -> 149 ;
150 [label="gini = 0.0\nsamples = 3\nvalue = [3, 0]\nclass = i", fillcolor="#e58139"] ;
149 -> 150 ;
151 [label="gini = 0.0\nsamples = 1\nvalue = [0, 1]\nclass = n", fillcolor="#399de5"] ;
149 -> 151 ;
152 [label="marital-status_Married-spouse-absent <= 0.5\ngini = 0.064\nsamples = 30\nvalue = [29, 1]\nclass = i", fillcolor="#e68540"] ;
98 -> 152 ;
153 [label="gini = 0.0\nsamples = 29\nvalue = [29, 0]\nclass = i", fillcolor="#e58139"] ;
152 -> 153 ;
154 [label="gini = 0.0\nsamples = 1\nvalue = [0, 1]\nclass = n", fillcolor="#399de5"] ;
152 -> 154 ;
155 [label="native-country_England <= 0.5\ngini = 0.046\nsamples = 1141\nvalue = [1114, 27]\nclass = i", fillcolor="#e6843e"] ;
97 -> 155 ;
156 [label="occupation_Exec-managerial <= 0.5\ngini = 0.045\nsamples = 1138\nvalue = [1112, 26]\nclass = i", fillcolor="#e6843e"] ;
155 -> 156 ;
157 [label="fnlwgt <= 24306.5\ngini = 0.036\nsamples = 1034\nvalue = [1015, 19]\nclass = i", fillcolor="#e5833d"] ;
156 -> 157 ;
158 [label="fnlwgt <= 23881.5\ngini = 0.198\nsamples = 9\nvalue = [8, 1]\nclass = i", fillcolor="#e89152"] ;
157 -> 158 ;
159 [label="gini = 0.0\nsamples = 8\nvalue = [8, 0]\nclass = i", fillcolor="#e58139"] ;
158 -> 159 ;
160 [label="gini = 0.0\nsamples = 1\nvalue = [0, 1]\nclass = n", fillcolor="#399de5"] ;
158 -> 160 ;
161 [label="occupation_Craft-repair <= 0.5\ngini = 0.035\nsamples = 1025\nvalue = [1007, 18]\nclass = i", fillcolor="#e5833d"] ;
157 -> 161 ;
162 [label="relationship_Not-in-family <= 0.5\ngini = 0.028\nsamples = 903\nvalue = [890, 13]\nclass = i", fillcolor="#e5833c"] ;
161 -> 162 ;
163 [label="marital-status_Widowed <= 0.5\ngini = 0.012\nsamples = 496\nvalue = [493, 3]\nclass = i", fillcolor="#e5823a"] ;
162 -> 163 ;
164 [label="occupation_Prof-specialty <= 0.5\ngini = 0.008\nsamples = 486\nvalue = [484, 2]\nclass = i", fillcolor="#e5823a"] ;
163 -> 164 ;
165 [label="gender_Male <= 0.5\ngini = 0.005\nsamples = 440\nvalue = [439, 1]\nclass = i", fillcolor="#e58139"] ;
164 -> 165 ;
166 [label="gini = 0.0\nsamples = 342\nvalue = [342, 0]\nclass = i", fillcolor="#e58139"] ;
165 -> 166 ;
167 [label="occupation_Adm-clerical <= 0.5\ngini = 0.02\nsamples = 98\nvalue = [97, 1]\nclass = i", fillcolor="#e5823b"] ;
165 -> 167 ;
168 [label="gini = 0.0\nsamples = 77\nvalue = [77, 0]\nclass = i", fillcolor="#e58139"] ;
167 -> 168 ;
169 [label="age <= 33.5\ngini = 0.091\nsamples = 21\nvalue = [20, 1]\nclass = i", fillcolor="#e68743"] ;
167 -> 169 ;
170 [label="gini = 0.0\nsamples = 12\nvalue = [12, 0]\nclass = i", fillcolor="#e58139"] ;
169 -> 170 ;
171 [label="fnlwgt <= 187722.0\ngini = 0.198\nsamples = 9\nvalue = [8, 1]\nclass = i", fillcolor="#e89152"] ;
169 -> 171 ;
172 [label="gini = 0.0\nsamples = 5\nvalue = [5, 0]\nclass = i", fillcolor="#e58139"] ;
171 -> 172 ;
173 [label="fnlwgt <= 193756.0\ngini = 0.375\nsamples = 4\nvalue = [3, 1]\nclass = i", fillcolor="#eeab7b"] ;
171 -> 173 ;
174 [label="gini = 0.0\nsamples = 1\nvalue = [0, 1]\nclass = n", fillcolor="#399de5"] ;
173 -> 174 ;
175 [label="gini = 0.0\nsamples = 3\nvalue = [3, 0]\nclass = i", fillcolor="#e58139"] ;
173 -> 175 ;
176 [label="education_Assoc-voc <= 0.5\ngini = 0.043\nsamples = 46\nvalue = [45, 1]\nclass = i", fillcolor="#e6843d"] ;
164 -> 176 ;
177 [label="gini = 0.0\nsamples = 30\nvalue = [30, 0]\nclass = i", fillcolor="#e58139"] ;
176 -> 177 ;
178 [label="fnlwgt <= 176449.5\ngini = 0.117\nsamples = 16\nvalue = [15, 1]\nclass = i", fillcolor="#e78946"] ;
176 -> 178 ;
179 [label="fnlwgt <= 173088.5\ngini = 0.219\nsamples = 8\nvalue = [7, 1]\nclass = i", fillcolor="#e99355"] ;
178 -> 179 ;
180 [label="gini = 0.0\nsamples = 7\nvalue = [7, 0]\nclass = i", fillcolor="#e58139"] ;
179 -> 180 ;
181 [label="gini = 0.0\nsamples = 1\nvalue = [0, 1]\nclass = n", fillcolor="#399de5"] ;
179 -> 181 ;
182 [label="gini = 0.0\nsamples = 8\nvalue = [8, 0]\nclass = i", fillcolor="#e58139"] ;
178 -> 182 ;
183 [label="workclass_Self-emp-not-inc <= 0.5\ngini = 0.18\nsamples = 10\nvalue = [9, 1]\nclass = i", fillcolor="#e88f4f"] ;
163 -> 183 ;
184 [label="gini = 0.0\nsamples = 9\nvalue = [9, 0]\nclass = i", fillcolor="#e58139"] ;
183 -> 184 ;
185 [label="gini = 0.0\nsamples = 1\nvalue = [0, 1]\nclass = n", fillcolor="#399de5"] ;
183 -> 185 ;
186 [label="hours-per-week <= 12.5\ngini = 0.048\nsamples = 407\nvalue = [397, 10]\nclass = i", fillcolor="#e6843e"] ;
162 -> 186 ;
187 [label="hours-per-week <= 8.5\ngini = 0.245\nsamples = 7\nvalue = [6, 1]\nclass = i", fillcolor="#e9965a"] ;
186 -> 187 ;
188 [label="gini = 0.0\nsamples = 5\nvalue = [5, 0]\nclass = i", fillcolor="#e58139"] ;
187 -> 188 ;
189 [label="occupation_Prof-specialty <= 0.5\ngini = 0.5\nsamples = 2\nvalue = [1, 1]\nclass = i", fillcolor="#ffffff"] ;
187 -> 189 ;
190 [label="gini = 0.0\nsamples = 1\nvalue = [1, 0]\nclass = i", fillcolor="#e58139"] ;
189 -> 190 ;
191 [label="gini = 0.0\nsamples = 1\nvalue = [0, 1]\nclass = n", fillcolor="#399de5"] ;
189 -> 191 ;
192 [label="age <= 34.5\ngini = 0.044\nsamples = 400\nvalue = [391, 9]\nclass = i", fillcolor="#e6843e"] ;
186 -> 192 ;
193 [label="hours-per-week <= 40.5\ngini = 0.022\nsamples = 275\nvalue = [272, 3]\nclass = i", fillcolor="#e5823b"] ;
192 -> 193 ;
194 [label="workclass_Federal-gov <= 0.5\ngini = 0.015\nsamples = 269\nvalue = [267, 2]\nclass = i", fillcolor="#e5823a"] ;
193 -> 194 ;
195 [label="fnlwgt <= 371855.5\ngini = 0.008\nsamples = 258\nvalue = [257, 1]\nclass = i", fillcolor="#e5813a"] ;
194 -> 195 ;
196 [label="gini = 0.0\nsamples = 235\nvalue = [235, 0]\nclass = i", fillcolor="#e58139"] ;
195 -> 196 ;
197 [label="education_Assoc-voc <= 0.5\ngini = 0.083\nsamples = 23\nvalue = [22, 1]\nclass = i", fillcolor="#e68742"] ;
195 -> 197 ;
198 [label="gini = 0.0\nsamples = 22\nvalue = [22, 0]\nclass = i", fillcolor="#e58139"] ;
197 -> 198 ;
199 [label="gini = 0.0\nsamples = 1\nvalue = [0, 1]\nclass = n", fillcolor="#399de5"] ;
197 -> 199 ;
200 [label="occupation_Other-service <= 0.5\ngini = 0.165\nsamples = 11\nvalue = [10, 1]\nclass = i", fillcolor="#e88e4d"] ;
194 -> 200 ;
201 [label="gini = 0.0\nsamples = 9\nvalue = [9, 0]\nclass = i", fillcolor="#e58139"] ;
200 -> 201 ;
202 [label="race_White <= 0.5\ngini = 0.5\nsamples = 2\nvalue = [1, 1]\nclass = i", fillcolor="#ffffff"] ;
200 -> 202 ;
203 [label="gini = 0.0\nsamples = 1\nvalue = [1, 0]\nclass = i", fillcolor="#e58139"] ;
202 -> 203 ;
204 [label="gini = 0.0\nsamples = 1\nvalue = [0, 1]\nclass = n", fillcolor="#399de5"] ;
202 -> 204 ;
205 [label="hours-per-week <= 41.5\ngini = 0.278\nsamples = 6\nvalue = [5, 1]\nclass = i", fillcolor="#ea9a61"] ;
193 -> 205 ;
206 [label="educational-num <= 10.5\ngini = 0.5\nsamples = 2\nvalue = [1, 1]\nclass = i", fillcolor="#ffffff"] ;
205 -> 206 ;
207 [label="gini = 0.0\nsamples = 1\nvalue = [0, 1]\nclass = n", fillcolor="#399de5"] ;
206 -> 207 ;
208 [label="gini = 0.0\nsamples = 1\nvalue = [1, 0]\nclass = i", fillcolor="#e58139"] ;
206 -> 208 ;
209 [label="gini = 0.0\nsamples = 4\nvalue = [4, 0]\nclass = i", fillcolor="#e58139"] ;
205 -> 209 ;
210 [label="occupation_Tech-support <= 0.5\ngini = 0.091\nsamples = 125\nvalue = [119, 6]\nclass = i", fillcolor="#e68743"] ;
192 -> 210 ;
211 [label="marital-status_Never-married <= 0.5\ngini = 0.068\nsamples = 114\nvalue = [110, 4]\nclass = i", fillcolor="#e68640"] ;
210 -> 211 ;
212 [label="age <= 36.5\ngini = 0.137\nsamples = 54\nvalue = [50, 4]\nclass = i", fillcolor="#e78b49"] ;
211 -> 212 ;
213 [label="fnlwgt <= 49793.0\ngini = 0.26\nsamples = 26\nvalue = [22, 4]\nclass = i", fillcolor="#ea985d"] ;
212 -> 213 ;
214 [label="occupation_Prof-specialty <= 0.5\ngini = 0.5\nsamples = 2\nvalue = [1, 1]\nclass = i", fillcolor="#ffffff"] ;
213 -> 214 ;
215 [label="gini = 0.0\nsamples = 1\nvalue = [0, 1]\nclass = n", fillcolor="#399de5"] ;
214 -> 215 ;
216 [label="gini = 0.0\nsamples = 1\nvalue = [1, 0]\nclass = i", fillcolor="#e58139"] ;
214 -> 216 ;
217 [label="fnlwgt <= 171474.5\ngini = 0.219\nsamples = 24\nvalue = [21, 3]\nclass = i", fillcolor="#e99355"] ;
213 -> 217 ;
218 [label="gini = 0.0\nsamples = 9\nvalue = [9, 0]\nclass = i", fillcolor="#e58139"] ;
217 -> 218 ;
219 [label="education_Some-college <= 0.5\ngini = 0.32\nsamples = 15\nvalue = [12, 3]\nclass = i", fillcolor="#eca06a"] ;
217 -> 219 ;
220 [label="gini = 0.0\nsamples = 1\nvalue = [0, 1]\nclass = n", fillcolor="#399de5"] ;
219 -> 220 ;
221 [label="fnlwgt <= 173639.0\ngini = 0.245\nsamples = 14\nvalue = [12, 2]\nclass = i", fillcolor="#e9965a"] ;
219 -> 221 ;
222 [label="gini = 0.0\nsamples = 1\nvalue = [0, 1]\nclass = n", fillcolor="#399de5"] ;
221 -> 222 ;
223 [label="occupation_Transport-moving <= 0.5\ngini = 0.142\nsamples = 13\nvalue = [12, 1]\nclass = i", fillcolor="#e78c49"] ;
221 -> 223 ;
224 [label="gini = 0.0\nsamples = 10\nvalue = [10, 0]\nclass = i", fillcolor="#e58139"] ;
223 -> 224 ;
225 [label="gender_Male <= 0.5\ngini = 0.444\nsamples = 3\nvalue = [2, 1]\nclass = i", fillcolor="#f2c09c"] ;
223 -> 225 ;
226 [label="gini = 0.0\nsamples = 1\nvalue = [0, 1]\nclass = n", fillcolor="#399de5"] ;
225 -> 226 ;
227 [label="gini = 0.0\nsamples = 2\nvalue = [2, 0]\nclass = i", fillcolor="#e58139"] ;
225 -> 227 ;
228 [label="gini = 0.0\nsamples = 28\nvalue = [28, 0]\nclass = i", fillcolor="#e58139"] ;
212 -> 228 ;
229 [label="gini = 0.0\nsamples = 60\nvalue = [60, 0]\nclass = i", fillcolor="#e58139"] ;
211 -> 229 ;
230 [label="fnlwgt <= 170176.5\ngini = 0.298\nsamples = 11\nvalue = [9, 2]\nclass = i", fillcolor="#eb9d65"] ;
210 -> 230 ;
231 [label="gini = 0.0\nsamples = 5\nvalue = [5, 0]\nclass = i", fillcolor="#e58139"] ;
230 -> 231 ;
232 [label="fnlwgt <= 181594.5\ngini = 0.444\nsamples = 6\nvalue = [4, 2]\nclass = i", fillcolor="#f2c09c"] ;
230 -> 232 ;
233 [label="gini = 0.0\nsamples = 1\nvalue = [0, 1]\nclass = n", fillcolor="#399de5"] ;
232 -> 233 ;
234 [label="education_Assoc-voc <= 0.5\ngini = 0.32\nsamples = 5\nvalue = [4, 1]\nclass = i", fillcolor="#eca06a"] ;
232 -> 234 ;
235 [label="fnlwgt <= 204011.0\ngini = 0.5\nsamples = 2\nvalue = [1, 1]\nclass = i", fillcolor="#ffffff"] ;
234 -> 235 ;
236 [label="gini = 0.0\nsamples = 1\nvalue = [1, 0]\nclass = i", fillcolor="#e58139"] ;
235 -> 236 ;
237 [label="gini = 0.0\nsamples = 1\nvalue = [0, 1]\nclass = n", fillcolor="#399de5"] ;
235 -> 237 ;
238 [label="gini = 0.0\nsamples = 3\nvalue = [3, 0]\nclass = i", fillcolor="#e58139"] ;
234 -> 238 ;
239 [label="age <= 33.5\ngini = 0.079\nsamples = 122\nvalue = [117, 5]\nclass = i", fillcolor="#e68641"] ;
161 -> 239 ;
240 [label="workclass_Federal-gov <= 0.5\ngini = 0.144\nsamples = 64\nvalue = [59, 5]\nclass = i", fillcolor="#e78c4a"] ;
239 -> 240 ;
241 [label="fnlwgt <= 217047.0\ngini = 0.121\nsamples = 62\nvalue = [58, 4]\nclass = i", fillcolor="#e78a47"] ;
240 -> 241 ;
242 [label="fnlwgt <= 213037.0\ngini = 0.176\nsamples = 41\nvalue = [37, 4]\nclass = i", fillcolor="#e88f4e"] ;
241 -> 242 ;
243 [label="age <= 30.5\ngini = 0.139\nsamples = 40\nvalue = [37, 3]\nclass = i", fillcolor="#e78b49"] ;
242 -> 243 ;
244 [label="fnlwgt <= 60105.0\ngini = 0.278\nsamples = 18\nvalue = [15, 3]\nclass = i", fillcolor="#ea9a61"] ;
243 -> 244 ;
245 [label="age <= 29.5\ngini = 0.5\nsamples = 2\nvalue = [1, 1]\nclass = i", fillcolor="#ffffff"] ;
244 -> 245 ;
246 [label="gini = 0.0\nsamples = 1\nvalue = [0, 1]\nclass = n", fillcolor="#399de5"] ;
245 -> 246 ;
247 [label="gini = 0.0\nsamples = 1\nvalue = [1, 0]\nclass = i", fillcolor="#e58139"] ;
245 -> 247 ;
248 [label="fnlwgt <= 157602.5\ngini = 0.219\nsamples = 16\nvalue = [14, 2]\nclass = i", fillcolor="#e99355"] ;
244 -> 248 ;
249 [label="gini = 0.0\nsamples = 8\nvalue = [8, 0]\nclass = i", fillcolor="#e58139"] ;
248 -> 249 ;
250 [label="relationship_Not-in-family <= 0.5\ngini = 0.375\nsamples = 8\nvalue = [6, 2]\nclass = i", fillcolor="#eeab7b"] ;
248 -> 250 ;
251 [label="gini = 0.0\nsamples = 1\nvalue = [0, 1]\nclass = n", fillcolor="#399de5"] ;
250 -> 251 ;
252 [label="fnlwgt <= 179165.5\ngini = 0.245\nsamples = 7\nvalue = [6, 1]\nclass = i", fillcolor="#e9965a"] ;
250 -> 252 ;
253 [label="fnlwgt <= 177201.0\ngini = 0.444\nsamples = 3\nvalue = [2, 1]\nclass = i", fillcolor="#f2c09c"] ;
252 -> 253 ;
254 [label="gini = 0.0\nsamples = 2\nvalue = [2, 0]\nclass = i", fillcolor="#e58139"] ;
253 -> 254 ;
255 [label="gini = 0.0\nsamples = 1\nvalue = [0, 1]\nclass = n", fillcolor="#399de5"] ;
253 -> 255 ;
256 [label="gini = 0.0\nsamples = 4\nvalue = [4, 0]\nclass = i", fillcolor="#e58139"] ;
252 -> 256 ;
257 [label="gini = 0.0\nsamples = 22\nvalue = [22, 0]\nclass = i", fillcolor="#e58139"] ;
243 -> 257 ;
258 [label="gini = 0.0\nsamples = 1\nvalue = [0, 1]\nclass = n", fillcolor="#399de5"] ;
242 -> 258 ;
259 [label="gini = 0.0\nsamples = 21\nvalue = [21, 0]\nclass = i", fillcolor="#e58139"] ;
241 -> 259 ;
260 [label="race_White <= 0.5\ngini = 0.5\nsamples = 2\nvalue = [1, 1]\nclass = i", fillcolor="#ffffff"] ;
240 -> 260 ;
261 [label="gini = 0.0\nsamples = 1\nvalue = [0, 1]\nclass = n", fillcolor="#399de5"] ;
260 -> 261 ;
262 [label="gini = 0.0\nsamples = 1\nvalue = [1, 0]\nclass = i", fillcolor="#e58139"] ;
260 -> 262 ;
263 [label="gini = 0.0\nsamples = 58\nvalue = [58, 0]\nclass = i", fillcolor="#e58139"] ;
239 -> 263 ;
264 [label="native-country_Japan <= 0.5\ngini = 0.126\nsamples = 104\nvalue = [97, 7]\nclass = i", fillcolor="#e78a47"] ;
156 -> 264 ;
265 [label="marital-status_Widowed <= 0.5\ngini = 0.11\nsamples = 103\nvalue = [97, 6]\nclass = i", fillcolor="#e78945"] ;
264 -> 265 ;
266 [label="relationship_Not-in-family <= 0.5\ngini = 0.094\nsamples = 101\nvalue = [96, 5]\nclass = i", fillcolor="#e68843"] ;
265 -> 266 ;
267 [label="gini = 0.0\nsamples = 53\nvalue = [53, 0]\nclass = i", fillcolor="#e58139"] ;
266 -> 267 ;
268 [label="fnlwgt <= 145182.0\ngini = 0.187\nsamples = 48\nvalue = [43, 5]\nclass = i", fillcolor="#e89050"] ;
266 -> 268 ;
269 [label="fnlwgt <= 111533.0\ngini = 0.32\nsamples = 20\nvalue = [16, 4]\nclass = i", fillcolor="#eca06a"] ;
268 -> 269 ;
270 [label="fnlwgt <= 53230.0\ngini = 0.133\nsamples = 14\nvalue = [13, 1]\nclass = i", fillcolor="#e78b48"] ;
269 -> 270 ;
271 [label="gini = 0.0\nsamples = 7\nvalue = [7, 0]\nclass = i", fillcolor="#e58139"] ;
270 -> 271 ;
272 [label="fnlwgt <= 67552.0\ngini = 0.245\nsamples = 7\nvalue = [6, 1]\nclass = i", fillcolor="#e9965a"] ;
270 -> 272 ;
273 [label="gini = 0.0\nsamples = 1\nvalue = [0, 1]\nclass = n", fillcolor="#399de5"] ;
272 -> 273 ;
274 [label="gini = 0.0\nsamples = 6\nvalue = [6, 0]\nclass = i", fillcolor="#e58139"] ;
272 -> 274 ;
275 [label="age <= 32.5\ngini = 0.5\nsamples = 6\nvalue = [3, 3]\nclass = i", fillcolor="#ffffff"] ;
269 -> 275 ;
276 [label="marital-status_Never-married <= 0.5\ngini = 0.375\nsamples = 4\nvalue = [3, 1]\nclass = i", fillcolor="#eeab7b"] ;
275 -> 276 ;
277 [label="gini = 0.0\nsamples = 2\nvalue = [2, 0]\nclass = i", fillcolor="#e58139"] ;
276 -> 277 ;
278 [label="race_Black <= 0.5\ngini = 0.5\nsamples = 2\nvalue = [1, 1]\nclass = i", fillcolor="#ffffff"] ;
276 -> 278 ;
279 [label="gini = 0.0\nsamples = 1\nvalue = [0, 1]\nclass = n", fillcolor="#399de5"] ;
278 -> 279 ;
280 [label="gini = 0.0\nsamples = 1\nvalue = [1, 0]\nclass = i", fillcolor="#e58139"] ;
278 -> 280 ;
281 [label="gini = 0.0\nsamples = 2\nvalue = [0, 2]\nclass = n", fillcolor="#399de5"] ;
275 -> 281 ;
282 [label="workclass_Self-emp-inc <= 0.5\ngini = 0.069\nsamples = 28\nvalue = [27, 1]\nclass = i", fillcolor="#e68640"] ;
268 -> 282 ;
283 [label="gini = 0.0\nsamples = 26\nvalue = [26, 0]\nclass = i", fillcolor="#e58139"] ;
282 -> 283 ;
284 [label="age <= 33.0\ngini = 0.5\nsamples = 2\nvalue = [1, 1]\nclass = i", fillcolor="#ffffff"] ;
282 -> 284 ;
285 [label="gini = 0.0\nsamples = 1\nvalue = [0, 1]\nclass = n", fillcolor="#399de5"] ;
284 -> 285 ;
286 [label="gini = 0.0\nsamples = 1\nvalue = [1, 0]\nclass = i", fillcolor="#e58139"] ;
284 -> 286 ;
287 [label="hours-per-week <= 35.0\ngini = 0.5\nsamples = 2\nvalue = [1, 1]\nclass = i", fillcolor="#ffffff"] ;
265 -> 287 ;
288 [label="gini = 0.0\nsamples = 1\nvalue = [1, 0]\nclass = i", fillcolor="#e58139"] ;
287 -> 288 ;
289 [label="gini = 0.0\nsamples = 1\nvalue = [0, 1]\nclass = n", fillcolor="#399de5"] ;
287 -> 289 ;
290 [label="gini = 0.0\nsamples = 1\nvalue = [0, 1]\nclass = n", fillcolor="#399de5"] ;
264 -> 290 ;
291 [label="age <= 33.0\ngini = 0.444\nsamples = 3\nvalue = [2, 1]\nclass = i", fillcolor="#f2c09c"] ;
155 -> 291 ;
292 [label="gini = 0.0\nsamples = 2\nvalue = [2, 0]\nclass = i", fillcolor="#e58139"] ;
291 -> 292 ;
293 [label="gini = 0.0\nsamples = 1\nvalue = [0, 1]\nclass = n", fillcolor="#399de5"] ;
291 -> 293 ;
294 [label="capital-gain <= 4826.0\ngini = 0.32\nsamples = 10\nvalue = [8, 2]\nclass = i", fillcolor="#eca06a"] ;
96 -> 294 ;
295 [label="gini = 0.0\nsamples = 2\nvalue = [0, 2]\nclass = n", fillcolor="#399de5"] ;
294 -> 295 ;
296 [label="gini = 0.0\nsamples = 8\nvalue = [8, 0]\nclass = i", fillcolor="#e58139"] ;
294 -> 296 ;
297 [label="age <= 29.5\ngini = 0.053\nsamples = 1460\nvalue = [1420, 40]\nclass = i", fillcolor="#e6853f"] ;
7 -> 297 ;
298 [label="native-country_England <= 0.5\ngini = 0.026\nsamples = 977\nvalue = [964, 13]\nclass = i", fillcolor="#e5833c"] ;
297 -> 298 ;
299 [label="capital-loss <= 1534.0\ngini = 0.024\nsamples = 973\nvalue = [961, 12]\nclass = i", fillcolor="#e5833b"] ;
298 -> 299 ;
300 [label="marital-status_Separated <= 0.5\ngini = 0.021\nsamples = 958\nvalue = [948, 10]\nclass = i", fillcolor="#e5823b"] ;
299 -> 300 ;
301 [label="fnlwgt <= 31635.5\ngini = 0.019\nsamples = 953\nvalue = [944, 9]\nclass = i", fillcolor="#e5823b"] ;
300 -> 301 ;
302 [label="occupation_Craft-repair <= 0.5\ngini = 0.219\nsamples = 8\nvalue = [7, 1]\nclass = i", fillcolor="#e99355"] ;
301 -> 302 ;
303 [label="gini = 0.0\nsamples = 7\nvalue = [7, 0]\nclass = i", fillcolor="#e58139"] ;
302 -> 303 ;
304 [label="gini = 0.0\nsamples = 1\nvalue = [0, 1]\nclass = n", fillcolor="#399de5"] ;
302 -> 304 ;
305 [label="age <= 21.5\ngini = 0.017\nsamples = 945\nvalue = [937, 8]\nclass = i", fillcolor="#e5823b"] ;
301 -> 305 ;
306 [label="occupation_Prof-specialty <= 0.5\ngini = 0.219\nsamples = 8\nvalue = [7, 1]\nclass = i", fillcolor="#e99355"] ;
305 -> 306 ;
307 [label="gini = 0.0\nsamples = 6\nvalue = [6, 0]\nclass = i", fillcolor="#e58139"] ;
306 -> 307 ;
308 [label="hours-per-week <= 35.0\ngini = 0.5\nsamples = 2\nvalue = [1, 1]\nclass = i", fillcolor="#ffffff"] ;
306 -> 308 ;
309 [label="gini = 0.0\nsamples = 1\nvalue = [1, 0]\nclass = i", fillcolor="#e58139"] ;
308 -> 309 ;
310 [label="gini = 0.0\nsamples = 1\nvalue = [0, 1]\nclass = n", fillcolor="#399de5"] ;
308 -> 310 ;
311 [label="workclass_Self-emp-inc <= 0.5\ngini = 0.015\nsamples = 937\nvalue = [930, 7]\nclass = i", fillcolor="#e5823a"] ;
305 -> 311 ;
312 [label="workclass_Federal-gov <= 0.5\ngini = 0.013\nsamples = 925\nvalue = [919, 6]\nclass = i", fillcolor="#e5823a"] ;
311 -> 312 ;
313 [label="occupation_Adm-clerical <= 0.5\ngini = 0.011\nsamples = 904\nvalue = [899, 5]\nclass = i", fillcolor="#e5823a"] ;
312 -> 313 ;
314 [label="fnlwgt <= 41011.0\ngini = 0.005\nsamples = 733\nvalue = [731, 2]\nclass = i", fillcolor="#e5813a"] ;
313 -> 314 ;
315 [label="fnlwgt <= 40713.5\ngini = 0.08\nsamples = 24\nvalue = [23, 1]\nclass = i", fillcolor="#e68642"] ;
314 -> 315 ;
316 [label="gini = 0.0\nsamples = 20\nvalue = [20, 0]\nclass = i", fillcolor="#e58139"] ;
315 -> 316 ;
317 [label="occupation_Exec-managerial <= 0.5\ngini = 0.375\nsamples = 4\nvalue = [3, 1]\nclass = i", fillcolor="#eeab7b"] ;
315 -> 317 ;
318 [label="gini = 0.0\nsamples = 3\nvalue = [3, 0]\nclass = i", fillcolor="#e58139"] ;
317 -> 318 ;
319 [label="gini = 0.0\nsamples = 1\nvalue = [0, 1]\nclass = n", fillcolor="#399de5"] ;
317 -> 319 ;
320 [label="fnlwgt <= 323996.5\ngini = 0.003\nsamples = 709\nvalue = [708, 1]\nclass = i", fillcolor="#e58139"] ;
314 -> 320 ;
321 [label="gini = 0.0\nsamples = 625\nvalue = [625, 0]\nclass = i", fillcolor="#e58139"] ;
320 -> 321 ;
322 [label="fnlwgt <= 325225.0\ngini = 0.024\nsamples = 84\nvalue = [83, 1]\nclass = i", fillcolor="#e5833b"] ;
320 -> 322 ;
323 [label="age <= 25.5\ngini = 0.5\nsamples = 2\nvalue = [1, 1]\nclass = i", fillcolor="#ffffff"] ;
322 -> 323 ;
324 [label="gini = 0.0\nsamples = 1\nvalue = [1, 0]\nclass = i", fillcolor="#e58139"] ;
323 -> 324 ;
325 [label="gini = 0.0\nsamples = 1\nvalue = [0, 1]\nclass = n", fillcolor="#399de5"] ;
323 -> 325 ;
326 [label="gini = 0.0\nsamples = 82\nvalue = [82, 0]\nclass = i", fillcolor="#e58139"] ;
322 -> 326 ;
327 [label="workclass_State-gov <= 0.5\ngini = 0.034\nsamples = 171\nvalue = [168, 3]\nclass = i", fillcolor="#e5833d"] ;
313 -> 327 ;
328 [label="age <= 24.5\ngini = 0.025\nsamples = 160\nvalue = [158, 2]\nclass = i", fillcolor="#e5833c"] ;
327 -> 328 ;
329 [label="gini = 0.0\nsamples = 76\nvalue = [76, 0]\nclass = i", fillcolor="#e58139"] ;
328 -> 329 ;
330 [label="age <= 26.5\ngini = 0.046\nsamples = 84\nvalue = [82, 2]\nclass = i", fillcolor="#e6843e"] ;
328 -> 330 ;
331 [label="fnlwgt <= 172959.5\ngini = 0.087\nsamples = 44\nvalue = [42, 2]\nclass = i", fillcolor="#e68742"] ;
330 -> 331 ;
332 [label="gini = 0.0\nsamples = 19\nvalue = [19, 0]\nclass = i", fillcolor="#e58139"] ;
331 -> 332 ;
333 [label="fnlwgt <= 178924.5\ngini = 0.147\nsamples = 25\nvalue = [23, 2]\nclass = i", fillcolor="#e78c4a"] ;
331 -> 333 ;
334 [label="gini = 0.0\nsamples = 1\nvalue = [0, 1]\nclass = n", fillcolor="#399de5"] ;
333 -> 334 ;
335 [label="fnlwgt <= 211774.5\ngini = 0.08\nsamples = 24\nvalue = [23, 1]\nclass = i", fillcolor="#e68642"] ;
333 -> 335 ;
336 [label="fnlwgt <= 198928.0\ngini = 0.245\nsamples = 7\nvalue = [6, 1]\nclass = i", fillcolor="#e9965a"] ;
335 -> 336 ;
337 [label="gini = 0.0\nsamples = 6\nvalue = [6, 0]\nclass = i", fillcolor="#e58139"] ;
336 -> 337 ;
338 [label="gini = 0.0\nsamples = 1\nvalue = [0, 1]\nclass = n", fillcolor="#399de5"] ;
336 -> 338 ;
339 [label="gini = 0.0\nsamples = 17\nvalue = [17, 0]\nclass = i", fillcolor="#e58139"] ;
335 -> 339 ;
340 [label="gini = 0.0\nsamples = 40\nvalue = [40, 0]\nclass = i", fillcolor="#e58139"] ;
330 -> 340 ;
341 [label="race_Asian-Pac-Islander <= 0.5\ngini = 0.165\nsamples = 11\nvalue = [10, 1]\nclass = i", fillcolor="#e88e4d"] ;
327 -> 341 ;
342 [label="gini = 0.0\nsamples = 10\nvalue = [10, 0]\nclass = i", fillcolor="#e58139"] ;
341 -> 342 ;
343 [label="gini = 0.0\nsamples = 1\nvalue = [0, 1]\nclass = n", fillcolor="#399de5"] ;
341 -> 343 ;
344 [label="fnlwgt <= 333500.5\ngini = 0.091\nsamples = 21\nvalue = [20, 1]\nclass = i", fillcolor="#e68743"] ;
312 -> 344 ;
345 [label="gini = 0.0\nsamples = 19\nvalue = [19, 0]\nclass = i", fillcolor="#e58139"] ;
344 -> 345 ;
346 [label="relationship_Not-in-family <= 0.5\ngini = 0.5\nsamples = 2\nvalue = [1, 1]\nclass = i", fillcolor="#ffffff"] ;
344 -> 346 ;
347 [label="gini = 0.0\nsamples = 1\nvalue = [1, 0]\nclass = i", fillcolor="#e58139"] ;
346 -> 347 ;
348 [label="gini = 0.0\nsamples = 1\nvalue = [0, 1]\nclass = n", fillcolor="#399de5"] ;
346 -> 348 ;
349 [label="age <= 28.0\ngini = 0.153\nsamples = 12\nvalue = [11, 1]\nclass = i", fillcolor="#e78c4b"] ;
311 -> 349 ;
350 [label="gini = 0.0\nsamples = 11\nvalue = [11, 0]\nclass = i", fillcolor="#e58139"] ;
349 -> 350 ;
351 [label="gini = 0.0\nsamples = 1\nvalue = [0, 1]\nclass = n", fillcolor="#399de5"] ;
349 -> 351 ;
352 [label="race_White <= 0.5\ngini = 0.32\nsamples = 5\nvalue = [4, 1]\nclass = i", fillcolor="#eca06a"] ;
300 -> 352 ;
353 [label="gini = 0.0\nsamples = 1\nvalue = [0, 1]\nclass = n", fillcolor="#399de5"] ;
352 -> 353 ;
354 [label="gini = 0.0\nsamples = 4\nvalue = [4, 0]\nclass = i", fillcolor="#e58139"] ;
352 -> 354 ;
355 [label="capital-loss <= 1577.0\ngini = 0.231\nsamples = 15\nvalue = [13, 2]\nclass = i", fillcolor="#e99457"] ;
299 -> 355 ;
356 [label="gini = 0.0\nsamples = 2\nvalue = [0, 2]\nclass = n", fillcolor="#399de5"] ;
355 -> 356 ;
357 [label="gini = 0.0\nsamples = 13\nvalue = [13, 0]\nclass = i", fillcolor="#e58139"] ;
355 -> 357 ;
358 [label="hours-per-week <= 39.0\ngini = 0.375\nsamples = 4\nvalue = [3, 1]\nclass = i", fillcolor="#eeab7b"] ;
298 -> 358 ;
359 [label="gini = 0.0\nsamples = 3\nvalue = [3, 0]\nclass = i", fillcolor="#e58139"] ;
358 -> 359 ;
360 [label="gini = 0.0\nsamples = 1\nvalue = [0, 1]\nclass = n", fillcolor="#399de5"] ;
358 -> 360 ;
361 [label="capital-gain <= 4718.5\ngini = 0.106\nsamples = 483\nvalue = [456, 27]\nclass = i", fillcolor="#e78845"] ;
297 -> 361 ;
362 [label="occupation_Sales <= 0.5\ngini = 0.1\nsamples = 476\nvalue = [451, 25]\nclass = i", fillcolor="#e68844"] ;
361 -> 362 ;
363 [label="occupation_Prof-specialty <= 0.5\ngini = 0.084\nsamples = 410\nvalue = [392, 18]\nclass = i", fillcolor="#e68742"] ;
362 -> 363 ;
364 [label="fnlwgt <= 136483.0\ngini = 0.04\nsamples = 246\nvalue = [241, 5]\nclass = i", fillcolor="#e6843d"] ;
363 -> 364 ;
365 [label="gini = 0.0\nsamples = 88\nvalue = [88, 0]\nclass = i", fillcolor="#e58139"] ;
364 -> 365 ;
366 [label="fnlwgt <= 139409.5\ngini = 0.061\nsamples = 158\nvalue = [153, 5]\nclass = i", fillcolor="#e6853f"] ;
364 -> 366 ;
367 [label="gini = 0.0\nsamples = 1\nvalue = [0, 1]\nclass = n", fillcolor="#399de5"] ;
366 -> 367 ;
368 [label="occupation_Exec-managerial <= 0.5\ngini = 0.05\nsamples = 157\nvalue = [153, 4]\nclass = i", fillcolor="#e6843e"] ;
366 -> 368 ;
369 [label="age <= 30.5\ngini = 0.019\nsamples = 107\nvalue = [106, 1]\nclass = i", fillcolor="#e5823b"] ;
368 -> 369 ;
370 [label="occupation_Tech-support <= 0.5\ngini = 0.153\nsamples = 12\nvalue = [11, 1]\nclass = i", fillcolor="#e78c4b"] ;
369 -> 370 ;
371 [label="gini = 0.0\nsamples = 10\nvalue = [10, 0]\nclass = i", fillcolor="#e58139"] ;
370 -> 371 ;
372 [label="hours-per-week <= 37.5\ngini = 0.5\nsamples = 2\nvalue = [1, 1]\nclass = i", fillcolor="#ffffff"] ;
370 -> 372 ;
373 [label="gini = 0.0\nsamples = 1\nvalue = [1, 0]\nclass = i", fillcolor="#e58139"] ;
372 -> 373 ;
374 [label="gini = 0.0\nsamples = 1\nvalue = [0, 1]\nclass = n", fillcolor="#399de5"] ;
372 -> 374 ;
375 [label="gini = 0.0\nsamples = 95\nvalue = [95, 0]\nclass = i", fillcolor="#e58139"] ;
369 -> 375 ;
376 [label="relationship_Not-in-family <= 0.5\ngini = 0.113\nsamples = 50\nvalue = [47, 3]\nclass = i", fillcolor="#e78946"] ;
368 -> 376 ;
377 [label="gini = 0.0\nsamples = 18\nvalue = [18, 0]\nclass = i", fillcolor="#e58139"] ;
376 -> 377 ;
378 [label="fnlwgt <= 178470.5\ngini = 0.17\nsamples = 32\nvalue = [29, 3]\nclass = i", fillcolor="#e88e4d"] ;
376 -> 378 ;
379 [label="marital-status_Never-married <= 0.5\ngini = 0.375\nsamples = 4\nvalue = [3, 1]\nclass = i", fillcolor="#eeab7b"] ;
378 -> 379 ;
380 [label="gini = 0.0\nsamples = 1\nvalue = [0, 1]\nclass = n", fillcolor="#399de5"] ;
379 -> 380 ;
381 [label="gini = 0.0\nsamples = 3\nvalue = [3, 0]\nclass = i", fillcolor="#e58139"] ;
379 -> 381 ;
382 [label="fnlwgt <= 276669.0\ngini = 0.133\nsamples = 28\nvalue = [26, 2]\nclass = i", fillcolor="#e78b48"] ;
378 -> 382 ;
383 [label="gini = 0.0\nsamples = 15\nvalue = [15, 0]\nclass = i", fillcolor="#e58139"] ;
382 -> 383 ;
384 [label="fnlwgt <= 281769.0\ngini = 0.26\nsamples = 13\nvalue = [11, 2]\nclass = i", fillcolor="#ea985d"] ;
382 -> 384 ;
385 [label="gini = 0.0\nsamples = 1\nvalue = [0, 1]\nclass = n", fillcolor="#399de5"] ;
384 -> 385 ;
386 [label="age <= 33.5\ngini = 0.153\nsamples = 12\nvalue = [11, 1]\nclass = i", fillcolor="#e78c4b"] ;
384 -> 386 ;
387 [label="gini = 0.0\nsamples = 8\nvalue = [8, 0]\nclass = i", fillcolor="#e58139"] ;
386 -> 387 ;
388 [label="fnlwgt <= 316894.0\ngini = 0.375\nsamples = 4\nvalue = [3, 1]\nclass = i", fillcolor="#eeab7b"] ;
386 -> 388 ;
389 [label="gini = 0.0\nsamples = 1\nvalue = [0, 1]\nclass = n", fillcolor="#399de5"] ;
388 -> 389 ;
390 [label="gini = 0.0\nsamples = 3\nvalue = [3, 0]\nclass = i", fillcolor="#e58139"] ;
388 -> 390 ;
391 [label="workclass_Self-emp-not-inc <= 0.5\ngini = 0.146\nsamples = 164\nvalue = [151, 13]\nclass = i", fillcolor="#e78c4a"] ;
363 -> 391 ;
392 [label="fnlwgt <= 114048.5\ngini = 0.129\nsamples = 159\nvalue = [148, 11]\nclass = i", fillcolor="#e78a48"] ;
391 -> 392 ;
393 [label="fnlwgt <= 112088.5\ngini = 0.266\nsamples = 38\nvalue = [32, 6]\nclass = i", fillcolor="#ea995e"] ;
392 -> 393 ;
394 [label="marital-status_Widowed <= 0.5\ngini = 0.202\nsamples = 35\nvalue = [31, 4]\nclass = i", fillcolor="#e89153"] ;
393 -> 394 ;
395 [label="native-country_Philippines <= 0.5\ngini = 0.161\nsamples = 34\nvalue = [31, 3]\nclass = i", fillcolor="#e88d4c"] ;
394 -> 395 ;
396 [label="workclass_Federal-gov <= 0.5\ngini = 0.114\nsamples = 33\nvalue = [31, 2]\nclass = i", fillcolor="#e78946"] ;
395 -> 396 ;
397 [label="fnlwgt <= 102200.5\ngini = 0.064\nsamples = 30\nvalue = [29, 1]\nclass = i", fillcolor="#e68540"] ;
396 -> 397 ;
398 [label="gini = 0.0\nsamples = 23\nvalue = [23, 0]\nclass = i", fillcolor="#e58139"] ;
397 -> 398 ;
399 [label="fnlwgt <= 103012.0\ngini = 0.245\nsamples = 7\nvalue = [6, 1]\nclass = i", fillcolor="#e9965a"] ;
397 -> 399 ;
400 [label="gini = 0.0\nsamples = 1\nvalue = [0, 1]\nclass = n", fillcolor="#399de5"] ;
399 -> 400 ;
401 [label="gini = 0.0\nsamples = 6\nvalue = [6, 0]\nclass = i", fillcolor="#e58139"] ;
399 -> 401 ;
402 [label="age <= 31.5\ngini = 0.444\nsamples = 3\nvalue = [2, 1]\nclass = i", fillcolor="#f2c09c"] ;
396 -> 402 ;
403 [label="fnlwgt <= 55615.0\ngini = 0.5\nsamples = 2\nvalue = [1, 1]\nclass = i", fillcolor="#ffffff"] ;
402 -> 403 ;
404 [label="gini = 0.0\nsamples = 1\nvalue = [1, 0]\nclass = i", fillcolor="#e58139"] ;
403 -> 404 ;
405 [label="gini = 0.0\nsamples = 1\nvalue = [0, 1]\nclass = n", fillcolor="#399de5"] ;
403 -> 405 ;
406 [label="gini = 0.0\nsamples = 1\nvalue = [1, 0]\nclass = i", fillcolor="#e58139"] ;
402 -> 406 ;
407 [label="gini = 0.0\nsamples = 1\nvalue = [0, 1]\nclass = n", fillcolor="#399de5"] ;
395 -> 407 ;
408 [label="gini = 0.0\nsamples = 1\nvalue = [0, 1]\nclass = n", fillcolor="#399de5"] ;
394 -> 408 ;
409 [label="gender_Male <= 0.5\ngini = 0.444\nsamples = 3\nvalue = [1, 2]\nclass = n", fillcolor="#9ccef2"] ;
393 -> 409 ;
410 [label="gini = 0.0\nsamples = 1\nvalue = [1, 0]\nclass = i", fillcolor="#e58139"] ;
409 -> 410 ;
411 [label="gini = 0.0\nsamples = 2\nvalue = [0, 2]\nclass = n", fillcolor="#399de5"] ;
409 -> 411 ;
412 [label="fnlwgt <= 410013.0\ngini = 0.079\nsamples = 121\nvalue = [116, 5]\nclass = i", fillcolor="#e68642"] ;
392 -> 412 ;
413 [label="workclass_Private <= 0.5\ngini = 0.065\nsamples = 119\nvalue = [115, 4]\nclass = i", fillcolor="#e68540"] ;
412 -> 413 ;
414 [label="gini = 0.0\nsamples = 44\nvalue = [44, 0]\nclass = i", fillcolor="#e58139"] ;
413 -> 414 ;
415 [label="age <= 31.5\ngini = 0.101\nsamples = 75\nvalue = [71, 4]\nclass = i", fillcolor="#e68844"] ;
413 -> 415 ;
416 [label="gini = 0.0\nsamples = 23\nvalue = [23, 0]\nclass = i", fillcolor="#e58139"] ;
415 -> 416 ;
417 [label="hours-per-week <= 39.5\ngini = 0.142\nsamples = 52\nvalue = [48, 4]\nclass = i", fillcolor="#e78c49"] ;
415 -> 417 ;
418 [label="gini = 0.0\nsamples = 12\nvalue = [12, 0]\nclass = i", fillcolor="#e58139"] ;
417 -> 418 ;
419 [label="relationship_Unmarried <= 0.5\ngini = 0.18\nsamples = 40\nvalue = [36, 4]\nclass = i", fillcolor="#e88f4f"] ;
417 -> 419 ;
420 [label="fnlwgt <= 139450.5\ngini = 0.149\nsamples = 37\nvalue = [34, 3]\nclass = i", fillcolor="#e78c4a"] ;
419 -> 420 ;
421 [label="fnlwgt <= 129859.5\ngini = 0.444\nsamples = 3\nvalue = [2, 1]\nclass = i", fillcolor="#f2c09c"] ;
420 -> 421 ;
422 [label="gini = 0.0\nsamples = 2\nvalue = [2, 0]\nclass = i", fillcolor="#e58139"] ;
421 -> 422 ;
423 [label="gini = 0.0\nsamples = 1\nvalue = [0, 1]\nclass = n", fillcolor="#399de5"] ;
421 -> 423 ;
424 [label="fnlwgt <= 245624.5\ngini = 0.111\nsamples = 34\nvalue = [32, 2]\nclass = i", fillcolor="#e78945"] ;
420 -> 424 ;
425 [label="gini = 0.0\nsamples = 23\nvalue = [23, 0]\nclass = i", fillcolor="#e58139"] ;
424 -> 425 ;
426 [label="fnlwgt <= 283734.5\ngini = 0.298\nsamples = 11\nvalue = [9, 2]\nclass = i", fillcolor="#eb9d65"] ;
424 -> 426 ;
427 [label="relationship_Not-in-family <= 0.5\ngini = 0.444\nsamples = 3\nvalue = [1, 2]\nclass = n", fillcolor="#9ccef2"] ;
426 -> 427 ;
428 [label="gini = 0.0\nsamples = 1\nvalue = [1, 0]\nclass = i", fillcolor="#e58139"] ;
427 -> 428 ;
429 [label="gini = 0.0\nsamples = 2\nvalue = [0, 2]\nclass = n", fillcolor="#399de5"] ;
427 -> 429 ;
430 [label="gini = 0.0\nsamples = 8\nvalue = [8, 0]\nclass = i", fillcolor="#e58139"] ;
426 -> 430 ;
431 [label="age <= 33.5\ngini = 0.444\nsamples = 3\nvalue = [2, 1]\nclass = i", fillcolor="#f2c09c"] ;
419 -> 431 ;
432 [label="gini = 0.0\nsamples = 2\nvalue = [2, 0]\nclass = i", fillcolor="#e58139"] ;
431 -> 432 ;
433 [label="gini = 0.0\nsamples = 1\nvalue = [0, 1]\nclass = n", fillcolor="#399de5"] ;
431 -> 433 ;
434 [label="hours-per-week <= 37.5\ngini = 0.5\nsamples = 2\nvalue = [1, 1]\nclass = i", fillcolor="#ffffff"] ;
412 -> 434 ;
435 [label="gini = 0.0\nsamples = 1\nvalue = [0, 1]\nclass = n", fillcolor="#399de5"] ;
434 -> 435 ;
436 [label="gini = 0.0\nsamples = 1\nvalue = [1, 0]\nclass = i", fillcolor="#e58139"] ;
434 -> 436 ;
437 [label="relationship_Own-child <= 0.5\ngini = 0.48\nsamples = 5\nvalue = [3, 2]\nclass = i", fillcolor="#f6d5bd"] ;
391 -> 437 ;
438 [label="hours-per-week <= 32.5\ngini = 0.444\nsamples = 3\nvalue = [1, 2]\nclass = n", fillcolor="#9ccef2"] ;
437 -> 438 ;
439 [label="gini = 0.0\nsamples = 1\nvalue = [1, 0]\nclass = i", fillcolor="#e58139"] ;
438 -> 439 ;
440 [label="gini = 0.0\nsamples = 2\nvalue = [0, 2]\nclass = n", fillcolor="#399de5"] ;
438 -> 440 ;
441 [label="gini = 0.0\nsamples = 2\nvalue = [2, 0]\nclass = i", fillcolor="#e58139"] ;
437 -> 441 ;
442 [label="gender_Male <= 0.5\ngini = 0.19\nsamples = 66\nvalue = [59, 7]\nclass = i", fillcolor="#e89050"] ;
362 -> 442 ;
443 [label="hours-per-week <= 37.5\ngini = 0.051\nsamples = 38\nvalue = [37, 1]\nclass = i", fillcolor="#e6843e"] ;
442 -> 443 ;
444 [label="hours-per-week <= 32.5\ngini = 0.245\nsamples = 7\nvalue = [6, 1]\nclass = i", fillcolor="#e9965a"] ;
443 -> 444 ;
445 [label="gini = 0.0\nsamples = 5\nvalue = [5, 0]\nclass = i", fillcolor="#e58139"] ;
444 -> 445 ;
446 [label="age <= 32.0\ngini = 0.5\nsamples = 2\nvalue = [1, 1]\nclass = i", fillcolor="#ffffff"] ;
444 -> 446 ;
447 [label="gini = 0.0\nsamples = 1\nvalue = [0, 1]\nclass = n", fillcolor="#399de5"] ;
446 -> 447 ;
448 [label="gini = 0.0\nsamples = 1\nvalue = [1, 0]\nclass = i", fillcolor="#e58139"] ;
446 -> 448 ;
449 [label="gini = 0.0\nsamples = 31\nvalue = [31, 0]\nclass = i", fillcolor="#e58139"] ;
443 -> 449 ;
450 [label="fnlwgt <= 201519.0\ngini = 0.337\nsamples = 28\nvalue = [22, 6]\nclass = i", fillcolor="#eca36f"] ;
442 -> 450 ;
451 [label="hours-per-week <= 39.0\ngini = 0.444\nsamples = 18\nvalue = [12, 6]\nclass = i", fillcolor="#f2c09c"] ;
450 -> 451 ;
452 [label="gini = 0.0\nsamples = 4\nvalue = [4, 0]\nclass = i", fillcolor="#e58139"] ;
451 -> 452 ;
453 [label="native-country_United-States <= 0.5\ngini = 0.49\nsamples = 14\nvalue = [8, 6]\nclass = i", fillcolor="#f8e0ce"] ;
451 -> 453 ;
454 [label="gini = 0.0\nsamples = 2\nvalue = [2, 0]\nclass = i", fillcolor="#e58139"] ;
453 -> 454 ;
455 [label="marital-status_Never-married <= 0.5\ngini = 0.5\nsamples = 12\nvalue = [6, 6]\nclass = i", fillcolor="#ffffff"] ;
453 -> 455 ;
456 [label="gini = 0.0\nsamples = 2\nvalue = [2, 0]\nclass = i", fillcolor="#e58139"] ;
455 -> 456 ;
457 [label="age <= 30.5\ngini = 0.48\nsamples = 10\nvalue = [4, 6]\nclass = n", fillcolor="#bddef6"] ;
455 -> 457 ;
458 [label="fnlwgt <= 132334.0\ngini = 0.48\nsamples = 5\nvalue = [3, 2]\nclass = i", fillcolor="#f6d5bd"] ;
457 -> 458 ;
459 [label="gini = 0.0\nsamples = 1\nvalue = [0, 1]\nclass = n", fillcolor="#399de5"] ;
458 -> 459 ;
460 [label="fnlwgt <= 193822.5\ngini = 0.375\nsamples = 4\nvalue = [3, 1]\nclass = i", fillcolor="#eeab7b"] ;
458 -> 460 ;
461 [label="gini = 0.0\nsamples = 3\nvalue = [3, 0]\nclass = i", fillcolor="#e58139"] ;
460 -> 461 ;
462 [label="gini = 0.0\nsamples = 1\nvalue = [0, 1]\nclass = n", fillcolor="#399de5"] ;
460 -> 462 ;
463 [label="fnlwgt <= 123152.0\ngini = 0.32\nsamples = 5\nvalue = [1, 4]\nclass = n", fillcolor="#6ab6ec"] ;
457 -> 463 ;
464 [label="relationship_Not-in-family <= 0.5\ngini = 0.5\nsamples = 2\nvalue = [1, 1]\nclass = i", fillcolor="#ffffff"] ;
463 -> 464 ;
465 [label="gini = 0.0\nsamples = 1\nvalue = [1, 0]\nclass = i", fillcolor="#e58139"] ;
464 -> 465 ;
466 [label="gini = 0.0\nsamples = 1\nvalue = [0, 1]\nclass = n", fillcolor="#399de5"] ;
464 -> 466 ;
467 [label="gini = 0.0\nsamples = 3\nvalue = [0, 3]\nclass = n", fillcolor="#399de5"] ;
463 -> 467 ;
468 [label="gini = 0.0\nsamples = 10\nvalue = [10, 0]\nclass = i", fillcolor="#e58139"] ;
450 -> 468 ;
469 [label="age <= 35.5\ngini = 0.408\nsamples = 7\nvalue = [5, 2]\nclass = i", fillcolor="#efb388"] ;
361 -> 469 ;
470 [label="gini = 0.0\nsamples = 5\nvalue = [5, 0]\nclass = i", fillcolor="#e58139"] ;
469 -> 470 ;
471 [label="gini = 0.0\nsamples = 2\nvalue = [0, 2]\nclass = n", fillcolor="#399de5"] ;
469 -> 471 ;
472 [label="occupation_Exec-managerial <= 0.5\ngini = 0.469\nsamples = 16\nvalue = [10, 6]\nclass = i", fillcolor="#f5cdb0"] ;
6 -> 472 ;
473 [label="fnlwgt <= 227308.5\ngini = 0.408\nsamples = 14\nvalue = [10, 4]\nclass = i", fillcolor="#efb388"] ;
472 -> 473 ;
474 [label="occupation_Prof-specialty <= 0.5\ngini = 0.298\nsamples = 11\nvalue = [9, 2]\nclass = i", fillcolor="#eb9d65"] ;
473 -> 474 ;
475 [label="age <= 33.0\ngini = 0.18\nsamples = 10\nvalue = [9, 1]\nclass = i", fillcolor="#e88f4f"] ;
474 -> 475 ;
476 [label="gini = 0.0\nsamples = 8\nvalue = [8, 0]\nclass = i", fillcolor="#e58139"] ;
475 -> 476 ;
477 [label="fnlwgt <= 128438.0\ngini = 0.5\nsamples = 2\nvalue = [1, 1]\nclass = i", fillcolor="#ffffff"] ;
475 -> 477 ;
478 [label="gini = 0.0\nsamples = 1\nvalue = [0, 1]\nclass = n", fillcolor="#399de5"] ;
477 -> 478 ;
479 [label="gini = 0.0\nsamples = 1\nvalue = [1, 0]\nclass = i", fillcolor="#e58139"] ;
477 -> 479 ;
480 [label="gini = 0.0\nsamples = 1\nvalue = [0, 1]\nclass = n", fillcolor="#399de5"] ;
474 -> 480 ;
481 [label="age <= 34.5\ngini = 0.444\nsamples = 3\nvalue = [1, 2]\nclass = n", fillcolor="#9ccef2"] ;
473 -> 481 ;
482 [label="gini = 0.0\nsamples = 2\nvalue = [0, 2]\nclass = n", fillcolor="#399de5"] ;
481 -> 482 ;
483 [label="gini = 0.0\nsamples = 1\nvalue = [1, 0]\nclass = i", fillcolor="#e58139"] ;
481 -> 483 ;
484 [label="gini = 0.0\nsamples = 2\nvalue = [0, 2]\nclass = n", fillcolor="#399de5"] ;
472 -> 484 ;
485 [label="educational-num <= 12.5\ngini = 0.085\nsamples = 4899\nvalue = [4681, 218]\nclass = i", fillcolor="#e68742"] ;
5 -> 485 ;
486 [label="occupation_Prof-specialty <= 0.5\ngini = 0.062\nsamples = 4289\nvalue = [4151, 138]\nclass = i", fillcolor="#e68540"] ;
485 -> 486 ;
487 [label="capital-gain <= 4718.5\ngini = 0.053\nsamples = 4077\nvalue = [3967, 110]\nclass = i", fillcolor="#e6843e"] ;
486 -> 487 ;
488 [label="occupation_Exec-managerial <= 0.5\ngini = 0.05\nsamples = 4048\nvalue = [3945, 103]\nclass = i", fillcolor="#e6843e"] ;
487 -> 488 ;
489 [label="occupation_Craft-repair <= 0.5\ngini = 0.043\nsamples = 3709\nvalue = [3628, 81]\nclass = i", fillcolor="#e6843d"] ;
488 -> 489 ;
490 [label="native-country_India <= 0.5\ngini = 0.035\nsamples = 3297\nvalue = [3239, 58]\nclass = i", fillcolor="#e5833d"] ;
489 -> 490 ;
491 [label="fnlwgt <= 20545.5\ngini = 0.034\nsamples = 3295\nvalue = [3238, 57]\nclass = i", fillcolor="#e5833c"] ;
490 -> 491 ;
492 [label="relationship_Unmarried <= 0.5\ngini = 0.444\nsamples = 3\nvalue = [2, 1]\nclass = i", fillcolor="#f2c09c"] ;
491 -> 492 ;
493 [label="gini = 0.0\nsamples = 1\nvalue = [0, 1]\nclass = n", fillcolor="#399de5"] ;
492 -> 493 ;
494 [label="gini = 0.0\nsamples = 2\nvalue = [2, 0]\nclass = i", fillcolor="#e58139"] ;
492 -> 494 ;
495 [label="workclass_Self-emp-inc <= 0.5\ngini = 0.033\nsamples = 3292\nvalue = [3236, 56]\nclass = i", fillcolor="#e5833c"] ;
491 -> 495 ;
496 [label="occupation_Tech-support <= 0.5\ngini = 0.032\nsamples = 3269\nvalue = [3216, 53]\nclass = i", fillcolor="#e5833c"] ;
495 -> 496 ;
497 [label="age <= 65.5\ngini = 0.029\nsamples = 3149\nvalue = [3103, 46]\nclass = i", fillcolor="#e5833c"] ;
496 -> 497 ;
498 [label="occupation_Transport-moving <= 0.5\ngini = 0.024\nsamples = 2740\nvalue = [2707, 33]\nclass = i", fillcolor="#e5833b"] ;
497 -> 498 ;
499 [label="occupation_Protective-serv <= 0.5\ngini = 0.021\nsamples = 2604\nvalue = [2577, 27]\nclass = i", fillcolor="#e5823b"] ;
498 -> 499 ;
500 [label="fnlwgt <= 359787.0\ngini = 0.019\nsamples = 2555\nvalue = [2531, 24]\nclass = i", fillcolor="#e5823b"] ;
499 -> 500 ;
501 [label="age <= 39.5\ngini = 0.016\nsamples = 2418\nvalue = [2399, 19]\nclass = i", fillcolor="#e5823b"] ;
500 -> 501 ;
502 [label="workclass_Federal-gov <= 0.5\ngini = 0.068\nsamples = 142\nvalue = [137, 5]\nclass = i", fillcolor="#e68640"] ;
501 -> 502 ;
503 [label="education_Assoc-acdm <= 0.5\ngini = 0.056\nsamples = 139\nvalue = [135, 4]\nclass = i", fillcolor="#e6853f"] ;
502 -> 503 ;
504 [label="workclass_Local-gov <= 0.5\ngini = 0.043\nsamples = 135\nvalue = [132, 3]\nclass = i", fillcolor="#e6843d"] ;
503 -> 504 ;
505 [label="occupation_Adm-clerical <= 0.5\ngini = 0.03\nsamples = 130\nvalue = [128, 2]\nclass = i", fillcolor="#e5833c"] ;
504 -> 505 ;
506 [label="gini = 0.0\nsamples = 94\nvalue = [94, 0]\nclass = i", fillcolor="#e58139"] ;
505 -> 506 ;
507 [label="gender_Male <= 0.5\ngini = 0.105\nsamples = 36\nvalue = [34, 2]\nclass = i", fillcolor="#e78845"] ;
505 -> 507 ;
508 [label="relationship_Own-child <= 0.5\ngini = 0.059\nsamples = 33\nvalue = [32, 1]\nclass = i", fillcolor="#e6853f"] ;
507 -> 508 ;
509 [label="gini = 0.0\nsamples = 27\nvalue = [27, 0]\nclass = i", fillcolor="#e58139"] ;
508 -> 509 ;
510 [label="marital-status_Never-married <= 0.5\ngini = 0.278\nsamples = 6\nvalue = [5, 1]\nclass = i", fillcolor="#ea9a61"] ;
508 -> 510 ;
511 [label="gini = 0.0\nsamples = 3\nvalue = [3, 0]\nclass = i", fillcolor="#e58139"] ;
510 -> 511 ;
512 [label="education_Some-college <= 0.5\ngini = 0.444\nsamples = 3\nvalue = [2, 1]\nclass = i", fillcolor="#f2c09c"] ;
510 -> 512 ;
513 [label="gini = 0.0\nsamples = 1\nvalue = [0, 1]\nclass = n", fillcolor="#399de5"] ;
512 -> 513 ;
514 [label="gini = 0.0\nsamples = 2\nvalue = [2, 0]\nclass = i", fillcolor="#e58139"] ;
512 -> 514 ;
515 [label="education_HS-grad <= 0.5\ngini = 0.444\nsamples = 3\nvalue = [2, 1]\nclass = i", fillcolor="#f2c09c"] ;
507 -> 515 ;
516 [label="gini = 0.0\nsamples = 2\nvalue = [2, 0]\nclass = i", fillcolor="#e58139"] ;
515 -> 516 ;
517 [label="gini = 0.0\nsamples = 1\nvalue = [0, 1]\nclass = n", fillcolor="#399de5"] ;
515 -> 517 ;
518 [label="relationship_Not-in-family <= 0.5\ngini = 0.32\nsamples = 5\nvalue = [4, 1]\nclass = i", fillcolor="#eca06a"] ;
504 -> 518 ;
519 [label="gini = 0.0\nsamples = 4\nvalue = [4, 0]\nclass = i", fillcolor="#e58139"] ;
518 -> 519 ;
520 [label="gini = 0.0\nsamples = 1\nvalue = [0, 1]\nclass = n", fillcolor="#399de5"] ;
518 -> 520 ;
521 [label="marital-status_Never-married <= 0.5\ngini = 0.375\nsamples = 4\nvalue = [3, 1]\nclass = i", fillcolor="#eeab7b"] ;
503 -> 521 ;
522 [label="race_Black <= 0.5\ngini = 0.5\nsamples = 2\nvalue = [1, 1]\nclass = i", fillcolor="#ffffff"] ;
521 -> 522 ;
523 [label="gini = 0.0\nsamples = 1\nvalue = [0, 1]\nclass = n", fillcolor="#399de5"] ;
522 -> 523 ;
524 [label="gini = 0.0\nsamples = 1\nvalue = [1, 0]\nclass = i", fillcolor="#e58139"] ;
522 -> 524 ;
525 [label="gini = 0.0\nsamples = 2\nvalue = [2, 0]\nclass = i", fillcolor="#e58139"] ;
521 -> 525 ;
526 [label="education_Some-college <= 0.5\ngini = 0.444\nsamples = 3\nvalue = [2, 1]\nclass = i", fillcolor="#f2c09c"] ;
502 -> 526 ;
527 [label="gini = 0.0\nsamples = 2\nvalue = [2, 0]\nclass = i", fillcolor="#e58139"] ;
526 -> 527 ;
528 [label="gini = 0.0\nsamples = 1\nvalue = [0, 1]\nclass = n", fillcolor="#399de5"] ;
526 -> 528 ;
529 [label="age <= 46.5\ngini = 0.012\nsamples = 2276\nvalue = [2262, 14]\nclass = i", fillcolor="#e5823a"] ;
501 -> 529 ;
530 [label="education_Assoc-voc <= 0.5\ngini = 0.002\nsamples = 844\nvalue = [843, 1]\nclass = i", fillcolor="#e58139"] ;
529 -> 530 ;
531 [label="gini = 0.0\nsamples = 807\nvalue = [807, 0]\nclass = i", fillcolor="#e58139"] ;
530 -> 531 ;
532 [label="workclass_Federal-gov <= 0.5\ngini = 0.053\nsamples = 37\nvalue = [36, 1]\nclass = i", fillcolor="#e6843e"] ;
530 -> 532 ;
533 [label="gini = 0.0\nsamples = 34\nvalue = [34, 0]\nclass = i", fillcolor="#e58139"] ;
532 -> 533 ;
534 [label="fnlwgt <= 230043.5\ngini = 0.444\nsamples = 3\nvalue = [2, 1]\nclass = i", fillcolor="#f2c09c"] ;
532 -> 534 ;
535 [label="gini = 0.0\nsamples = 2\nvalue = [2, 0]\nclass = i", fillcolor="#e58139"] ;
534 -> 535 ;
536 [label="gini = 0.0\nsamples = 1\nvalue = [0, 1]\nclass = n", fillcolor="#399de5"] ;
534 -> 536 ;
537 [label="education_Some-college <= 0.5\ngini = 0.018\nsamples = 1432\nvalue = [1419, 13]\nclass = i", fillcolor="#e5823b"] ;
529 -> 537 ;
538 [label="fnlwgt <= 28440.0\ngini = 0.012\nsamples = 1143\nvalue = [1136, 7]\nclass = i", fillcolor="#e5823a"] ;
537 -> 538 ;
539 [label="fnlwgt <= 27983.0\ngini = 0.153\nsamples = 12\nvalue = [11, 1]\nclass = i", fillcolor="#e78c4b"] ;
538 -> 539 ;
540 [label="gini = 0.0\nsamples = 11\nvalue = [11, 0]\nclass = i", fillcolor="#e58139"] ;
539 -> 540 ;
541 [label="gini = 0.0\nsamples = 1\nvalue = [0, 1]\nclass = n", fillcolor="#399de5"] ;
539 -> 541 ;
542 [label="education_12th <= 0.5\ngini = 0.011\nsamples = 1131\nvalue = [1125, 6]\nclass = i", fillcolor="#e5823a"] ;
538 -> 542 ;
543 [label="hours-per-week <= 35.5\ngini = 0.009\nsamples = 1112\nvalue = [1107, 5]\nclass = i", fillcolor="#e5823a"] ;
542 -> 543 ;
544 [label="workclass_State-gov <= 0.5\ngini = 0.022\nsamples = 354\nvalue = [350, 4]\nclass = i", fillcolor="#e5823b"] ;
543 -> 544 ;
545 [label="occupation_Sales <= 0.5\ngini = 0.017\nsamples = 343\nvalue = [340, 3]\nclass = i", fillcolor="#e5823b"] ;
544 -> 545 ;
546 [label="marital-status_Married-spouse-absent <= 0.5\ngini = 0.007\nsamples = 292\nvalue = [291, 1]\nclass = i", fillcolor="#e5813a"] ;
545 -> 546 ;
547 [label="gini = 0.0\nsamples = 273\nvalue = [273, 0]\nclass = i", fillcolor="#e58139"] ;
546 -> 547 ;
548 [label="gender_Male <= 0.5\ngini = 0.1\nsamples = 19\nvalue = [18, 1]\nclass = i", fillcolor="#e68844"] ;
546 -> 548 ;
549 [label="gini = 0.0\nsamples = 14\nvalue = [14, 0]\nclass = i", fillcolor="#e58139"] ;
548 -> 549 ;
550 [label="workclass_Private <= 0.5\ngini = 0.32\nsamples = 5\nvalue = [4, 1]\nclass = i", fillcolor="#eca06a"] ;
548 -> 550 ;
551 [label="gini = 0.0\nsamples = 1\nvalue = [0, 1]\nclass = n", fillcolor="#399de5"] ;
550 -> 551 ;
552 [label="gini = 0.0\nsamples = 4\nvalue = [4, 0]\nclass = i", fillcolor="#e58139"] ;
550 -> 552 ;
553 [label="hours-per-week <= 34.0\ngini = 0.075\nsamples = 51\nvalue = [49, 2]\nclass = i", fillcolor="#e68641"] ;
545 -> 553 ;
554 [label="gini = 0.0\nsamples = 41\nvalue = [41, 0]\nclass = i", fillcolor="#e58139"] ;
553 -> 554 ;
555 [label="age <= 57.5\ngini = 0.32\nsamples = 10\nvalue = [8, 2]\nclass = i", fillcolor="#eca06a"] ;
553 -> 555 ;
556 [label="gini = 0.0\nsamples = 7\nvalue = [7, 0]\nclass = i", fillcolor="#e58139"] ;
555 -> 556 ;
557 [label="age <= 59.5\ngini = 0.444\nsamples = 3\nvalue = [1, 2]\nclass = n", fillcolor="#9ccef2"] ;
555 -> 557 ;
558 [label="gini = 0.0\nsamples = 2\nvalue = [0, 2]\nclass = n", fillcolor="#399de5"] ;
557 -> 558 ;
559 [label="gini = 0.0\nsamples = 1\nvalue = [1, 0]\nclass = i", fillcolor="#e58139"] ;
557 -> 559 ;
560 [label="education_11th <= 0.5\ngini = 0.165\nsamples = 11\nvalue = [10, 1]\nclass = i", fillcolor="#e88e4d"] ;
544 -> 560 ;
561 [label="gini = 0.0\nsamples = 10\nvalue = [10, 0]\nclass = i", fillcolor="#e58139"] ;
560 -> 561 ;
562 [label="gini = 0.0\nsamples = 1\nvalue = [0, 1]\nclass = n", fillcolor="#399de5"] ;
560 -> 562 ;
563 [label="marital-status_Separated <= 0.5\ngini = 0.003\nsamples = 758\nvalue = [757, 1]\nclass = i", fillcolor="#e58139"] ;
543 -> 563 ;
564 [label="gini = 0.0\nsamples = 682\nvalue = [682, 0]\nclass = i", fillcolor="#e58139"] ;
563 -> 564 ;
565 [label="fnlwgt <= 253305.0\ngini = 0.026\nsamples = 76\nvalue = [75, 1]\nclass = i", fillcolor="#e5833c"] ;
563 -> 565 ;
566 [label="gini = 0.0\nsamples = 63\nvalue = [63, 0]\nclass = i", fillcolor="#e58139"] ;
565 -> 566 ;
567 [label="fnlwgt <= 261091.0\ngini = 0.142\nsamples = 13\nvalue = [12, 1]\nclass = i", fillcolor="#e78c49"] ;
565 -> 567 ;
568 [label="gini = 0.0\nsamples = 1\nvalue = [0, 1]\nclass = n", fillcolor="#399de5"] ;
567 -> 568 ;
569 [label="gini = 0.0\nsamples = 12\nvalue = [12, 0]\nclass = i", fillcolor="#e58139"] ;
567 -> 569 ;
570 [label="capital-loss <= 782.0\ngini = 0.1\nsamples = 19\nvalue = [18, 1]\nclass = i", fillcolor="#e68844"] ;
542 -> 570 ;
571 [label="gini = 0.0\nsamples = 18\nvalue = [18, 0]\nclass = i", fillcolor="#e58139"] ;
570 -> 571 ;
572 [label="gini = 0.0\nsamples = 1\nvalue = [0, 1]\nclass = n", fillcolor="#399de5"] ;
570 -> 572 ;
573 [label="age <= 52.5\ngini = 0.041\nsamples = 289\nvalue = [283, 6]\nclass = i", fillcolor="#e6843d"] ;
537 -> 573 ;
574 [label="relationship_Other-relative <= 0.5\ngini = 0.079\nsamples = 122\nvalue = [117, 5]\nclass = i", fillcolor="#e68641"] ;
573 -> 574 ;
575 [label="workclass_Private <= 0.5\ngini = 0.064\nsamples = 120\nvalue = [116, 4]\nclass = i", fillcolor="#e68540"] ;
574 -> 575 ;
576 [label="gini = 0.0\nsamples = 41\nvalue = [41, 0]\nclass = i", fillcolor="#e58139"] ;
575 -> 576 ;
577 [label="age <= 48.5\ngini = 0.096\nsamples = 79\nvalue = [75, 4]\nclass = i", fillcolor="#e68844"] ;
575 -> 577 ;
578 [label="fnlwgt <= 200812.5\ngini = 0.17\nsamples = 32\nvalue = [29, 3]\nclass = i", fillcolor="#e88e4d"] ;
577 -> 578 ;
579 [label="fnlwgt <= 195876.5\ngini = 0.255\nsamples = 20\nvalue = [17, 3]\nclass = i", fillcolor="#ea975c"] ;
578 -> 579 ;
580 [label="occupation_Machine-op-inspct <= 0.5\ngini = 0.188\nsamples = 19\nvalue = [17, 2]\nclass = i", fillcolor="#e89050"] ;
579 -> 580 ;
581 [label="marital-status_Widowed <= 0.5\ngini = 0.105\nsamples = 18\nvalue = [17, 1]\nclass = i", fillcolor="#e78845"] ;
580 -> 581 ;
582 [label="gini = 0.0\nsamples = 15\nvalue = [15, 0]\nclass = i", fillcolor="#e58139"] ;
581 -> 582 ;
583 [label="age <= 47.5\ngini = 0.444\nsamples = 3\nvalue = [2, 1]\nclass = i", fillcolor="#f2c09c"] ;
581 -> 583 ;
584 [label="gini = 0.0\nsamples = 2\nvalue = [2, 0]\nclass = i", fillcolor="#e58139"] ;
583 -> 584 ;
585 [label="gini = 0.0\nsamples = 1\nvalue = [0, 1]\nclass = n", fillcolor="#399de5"] ;
583 -> 585 ;
586 [label="gini = 0.0\nsamples = 1\nvalue = [0, 1]\nclass = n", fillcolor="#399de5"] ;
580 -> 586 ;
587 [label="gini = 0.0\nsamples = 1\nvalue = [0, 1]\nclass = n", fillcolor="#399de5"] ;
579 -> 587 ;
588 [label="gini = 0.0\nsamples = 12\nvalue = [12, 0]\nclass = i", fillcolor="#e58139"] ;
578 -> 588 ;
589 [label="occupation_Sales <= 0.5\ngini = 0.042\nsamples = 47\nvalue = [46, 1]\nclass = i", fillcolor="#e6843d"] ;
577 -> 589 ;
590 [label="gini = 0.0\nsamples = 37\nvalue = [37, 0]\nclass = i", fillcolor="#e58139"] ;
589 -> 590 ;
591 [label="fnlwgt <= 189206.5\ngini = 0.18\nsamples = 10\nvalue = [9, 1]\nclass = i", fillcolor="#e88f4f"] ;
589 -> 591 ;
592 [label="gini = 0.0\nsamples = 6\nvalue = [6, 0]\nclass = i", fillcolor="#e58139"] ;
591 -> 592 ;
593 [label="hours-per-week <= 39.0\ngini = 0.375\nsamples = 4\nvalue = [3, 1]\nclass = i", fillcolor="#eeab7b"] ;
591 -> 593 ;
594 [label="gini = 0.0\nsamples = 1\nvalue = [0, 1]\nclass = n", fillcolor="#399de5"] ;
593 -> 594 ;
595 [label="gini = 0.0\nsamples = 3\nvalue = [3, 0]\nclass = i", fillcolor="#e58139"] ;
593 -> 595 ;
596 [label="fnlwgt <= 112649.0\ngini = 0.5\nsamples = 2\nvalue = [1, 1]\nclass = i", fillcolor="#ffffff"] ;
574 -> 596 ;
597 [label="gini = 0.0\nsamples = 1\nvalue = [0, 1]\nclass = n", fillcolor="#399de5"] ;
596 -> 597 ;
598 [label="gini = 0.0\nsamples = 1\nvalue = [1, 0]\nclass = i", fillcolor="#e58139"] ;
596 -> 598 ;
599 [label="fnlwgt <= 124669.5\ngini = 0.012\nsamples = 167\nvalue = [166, 1]\nclass = i", fillcolor="#e5823a"] ;
573 -> 599 ;
600 [label="fnlwgt <= 122710.0\ngini = 0.043\nsamples = 46\nvalue = [45, 1]\nclass = i", fillcolor="#e6843d"] ;
599 -> 600 ;
601 [label="gini = 0.0\nsamples = 45\nvalue = [45, 0]\nclass = i", fillcolor="#e58139"] ;
600 -> 601 ;
602 [label="gini = 0.0\nsamples = 1\nvalue = [0, 1]\nclass = n", fillcolor="#399de5"] ;
600 -> 602 ;
603 [label="gini = 0.0\nsamples = 121\nvalue = [121, 0]\nclass = i", fillcolor="#e58139"] ;
599 -> 603 ;
604 [label="fnlwgt <= 359920.0\ngini = 0.07\nsamples = 137\nvalue = [132, 5]\nclass = i", fillcolor="#e68640"] ;
500 -> 604 ;
605 [label="gini = 0.0\nsamples = 1\nvalue = [0, 1]\nclass = n", fillcolor="#399de5"] ;
604 -> 605 ;
606 [label="fnlwgt <= 427151.5\ngini = 0.057\nsamples = 136\nvalue = [132, 4]\nclass = i", fillcolor="#e6853f"] ;
604 -> 606 ;
607 [label="fnlwgt <= 424344.0\ngini = 0.105\nsamples = 72\nvalue = [68, 4]\nclass = i", fillcolor="#e78845"] ;
606 -> 607 ;
608 [label="hours-per-week <= 39.0\ngini = 0.081\nsamples = 71\nvalue = [68, 3]\nclass = i", fillcolor="#e68742"] ;
607 -> 608 ;
609 [label="gini = 0.0\nsamples = 27\nvalue = [27, 0]\nclass = i", fillcolor="#e58139"] ;
608 -> 609 ;
610 [label="occupation_Sales <= 0.5\ngini = 0.127\nsamples = 44\nvalue = [41, 3]\nclass = i", fillcolor="#e78a47"] ;
608 -> 610 ;
611 [label="fnlwgt <= 366123.0\ngini = 0.095\nsamples = 40\nvalue = [38, 2]\nclass = i", fillcolor="#e68843"] ;
610 -> 611 ;
612 [label="fnlwgt <= 365597.0\ngini = 0.32\nsamples = 5\nvalue = [4, 1]\nclass = i", fillcolor="#eca06a"] ;
611 -> 612 ;
613 [label="gini = 0.0\nsamples = 4\nvalue = [4, 0]\nclass = i", fillcolor="#e58139"] ;
612 -> 613 ;
614 [label="gini = 0.0\nsamples = 1\nvalue = [0, 1]\nclass = n", fillcolor="#399de5"] ;
612 -> 614 ;
615 [label="fnlwgt <= 406565.0\ngini = 0.056\nsamples = 35\nvalue = [34, 1]\nclass = i", fillcolor="#e6853f"] ;
611 -> 615 ;
616 [label="gini = 0.0\nsamples = 26\nvalue = [26, 0]\nclass = i", fillcolor="#e58139"] ;
615 -> 616 ;
617 [label="fnlwgt <= 409902.0\ngini = 0.198\nsamples = 9\nvalue = [8, 1]\nclass = i", fillcolor="#e89152"] ;
615 -> 617 ;
618 [label="gini = 0.0\nsamples = 1\nvalue = [0, 1]\nclass = n", fillcolor="#399de5"] ;
617 -> 618 ;
619 [label="gini = 0.0\nsamples = 8\nvalue = [8, 0]\nclass = i", fillcolor="#e58139"] ;
617 -> 619 ;
620 [label="gender_Male <= 0.5\ngini = 0.375\nsamples = 4\nvalue = [3, 1]\nclass = i", fillcolor="#eeab7b"] ;
610 -> 620 ;
621 [label="gini = 0.0\nsamples = 3\nvalue = [3, 0]\nclass = i", fillcolor="#e58139"] ;
620 -> 621 ;
622 [label="gini = 0.0\nsamples = 1\nvalue = [0, 1]\nclass = n", fillcolor="#399de5"] ;
620 -> 622 ;
623 [label="gini = 0.0\nsamples = 1\nvalue = [0, 1]\nclass = n", fillcolor="#399de5"] ;
607 -> 623 ;
624 [label="gini = 0.0\nsamples = 64\nvalue = [64, 0]\nclass = i", fillcolor="#e58139"] ;
606 -> 624 ;
625 [label="marital-status_Never-married <= 0.5\ngini = 0.115\nsamples = 49\nvalue = [46, 3]\nclass = i", fillcolor="#e78946"] ;
499 -> 625 ;
626 [label="marital-status_Widowed <= 0.5\ngini = 0.045\nsamples = 43\nvalue = [42, 1]\nclass = i", fillcolor="#e6843e"] ;
625 -> 626 ;
627 [label="gini = 0.0\nsamples = 39\nvalue = [39, 0]\nclass = i", fillcolor="#e58139"] ;
626 -> 627 ;
628 [label="age <= 47.0\ngini = 0.375\nsamples = 4\nvalue = [3, 1]\nclass = i", fillcolor="#eeab7b"] ;
626 -> 628 ;
629 [label="gini = 0.0\nsamples = 1\nvalue = [0, 1]\nclass = n", fillcolor="#399de5"] ;
628 -> 629 ;
630 [label="gini = 0.0\nsamples = 3\nvalue = [3, 0]\nclass = i", fillcolor="#e58139"] ;
628 -> 630 ;
631 [label="age <= 43.0\ngini = 0.444\nsamples = 6\nvalue = [4, 2]\nclass = i", fillcolor="#f2c09c"] ;
625 -> 631 ;
632 [label="fnlwgt <= 131082.0\ngini = 0.444\nsamples = 3\nvalue = [1, 2]\nclass = n", fillcolor="#9ccef2"] ;
631 -> 632 ;
633 [label="gini = 0.0\nsamples = 1\nvalue = [1, 0]\nclass = i", fillcolor="#e58139"] ;
632 -> 633 ;
634 [label="gini = 0.0\nsamples = 2\nvalue = [0, 2]\nclass = n", fillcolor="#399de5"] ;
632 -> 634 ;
635 [label="gini = 0.0\nsamples = 3\nvalue = [3, 0]\nclass = i", fillcolor="#e58139"] ;
631 -> 635 ;
636 [label="hours-per-week <= 41.0\ngini = 0.084\nsamples = 136\nvalue = [130, 6]\nclass = i", fillcolor="#e68742"] ;
498 -> 636 ;
637 [label="relationship_Unmarried <= 0.5\ngini = 0.072\nsamples = 134\nvalue = [129, 5]\nclass = i", fillcolor="#e68641"] ;
636 -> 637 ;
638 [label="fnlwgt <= 123357.0\ngini = 0.04\nsamples = 99\nvalue = [97, 2]\nclass = i", fillcolor="#e6843d"] ;
637 -> 638 ;
639 [label="fnlwgt <= 122211.0\ngini = 0.124\nsamples = 30\nvalue = [28, 2]\nclass = i", fillcolor="#e78a47"] ;
638 -> 639 ;
640 [label="fnlwgt <= 117537.0\ngini = 0.067\nsamples = 29\nvalue = [28, 1]\nclass = i", fillcolor="#e68640"] ;
639 -> 640 ;
641 [label="gini = 0.0\nsamples = 26\nvalue = [26, 0]\nclass = i", fillcolor="#e58139"] ;
640 -> 641 ;
642 [label="education_Some-college <= 0.5\ngini = 0.444\nsamples = 3\nvalue = [2, 1]\nclass = i", fillcolor="#f2c09c"] ;
640 -> 642 ;
643 [label="gini = 0.0\nsamples = 2\nvalue = [2, 0]\nclass = i", fillcolor="#e58139"] ;
642 -> 643 ;
644 [label="gini = 0.0\nsamples = 1\nvalue = [0, 1]\nclass = n", fillcolor="#399de5"] ;
642 -> 644 ;
645 [label="gini = 0.0\nsamples = 1\nvalue = [0, 1]\nclass = n", fillcolor="#399de5"] ;
639 -> 645 ;
646 [label="gini = 0.0\nsamples = 69\nvalue = [69, 0]\nclass = i", fillcolor="#e58139"] ;
638 -> 646 ;
647 [label="education_9th <= 0.5\ngini = 0.157\nsamples = 35\nvalue = [32, 3]\nclass = i", fillcolor="#e78d4c"] ;
637 -> 647 ;
648 [label="fnlwgt <= 224490.5\ngini = 0.111\nsamples = 34\nvalue = [32, 2]\nclass = i", fillcolor="#e78945"] ;
647 -> 648 ;
649 [label="gini = 0.0\nsamples = 25\nvalue = [25, 0]\nclass = i", fillcolor="#e58139"] ;
648 -> 649 ;
650 [label="age <= 42.5\ngini = 0.346\nsamples = 9\nvalue = [7, 2]\nclass = i", fillcolor="#eca572"] ;
648 -> 650 ;
651 [label="marital-status_Widowed <= 0.5\ngini = 0.444\nsamples = 3\nvalue = [1, 2]\nclass = n", fillcolor="#9ccef2"] ;
650 -> 651 ;
652 [label="gini = 0.0\nsamples = 2\nvalue = [0, 2]\nclass = n", fillcolor="#399de5"] ;
651 -> 652 ;
653 [label="gini = 0.0\nsamples = 1\nvalue = [1, 0]\nclass = i", fillcolor="#e58139"] ;
651 -> 653 ;
654 [label="gini = 0.0\nsamples = 6\nvalue = [6, 0]\nclass = i", fillcolor="#e58139"] ;
650 -> 654 ;
655 [label="gini = 0.0\nsamples = 1\nvalue = [0, 1]\nclass = n", fillcolor="#399de5"] ;
647 -> 655 ;
656 [label="educational-num <= 8.0\ngini = 0.5\nsamples = 2\nvalue = [1, 1]\nclass = i", fillcolor="#ffffff"] ;
636 -> 656 ;
657 [label="gini = 0.0\nsamples = 1\nvalue = [1, 0]\nclass = i", fillcolor="#e58139"] ;
656 -> 657 ;
658 [label="gini = 0.0\nsamples = 1\nvalue = [0, 1]\nclass = n", fillcolor="#399de5"] ;
656 -> 658 ;
659 [label="hours-per-week <= 34.5\ngini = 0.062\nsamples = 409\nvalue = [396, 13]\nclass = i", fillcolor="#e6853f"] ;
497 -> 659 ;
660 [label="native-country_Italy <= 0.5\ngini = 0.02\nsamples = 294\nvalue = [291, 3]\nclass = i", fillcolor="#e5823b"] ;
659 -> 660 ;
661 [label="hours-per-week <= 21.0\ngini = 0.014\nsamples = 291\nvalue = [289, 2]\nclass = i", fillcolor="#e5823a"] ;
660 -> 661 ;
662 [label="gini = 0.0\nsamples = 216\nvalue = [216, 0]\nclass = i", fillcolor="#e58139"] ;
661 -> 662 ;
663 [label="hours-per-week <= 22.5\ngini = 0.052\nsamples = 75\nvalue = [73, 2]\nclass = i", fillcolor="#e6843e"] ;
661 -> 663 ;
664 [label="fnlwgt <= 112685.0\ngini = 0.444\nsamples = 3\nvalue = [2, 1]\nclass = i", fillcolor="#f2c09c"] ;
663 -> 664 ;
665 [label="gini = 0.0\nsamples = 2\nvalue = [2, 0]\nclass = i", fillcolor="#e58139"] ;
664 -> 665 ;
666 [label="gini = 0.0\nsamples = 1\nvalue = [0, 1]\nclass = n", fillcolor="#399de5"] ;
664 -> 666 ;
667 [label="workclass_Self-emp-not-inc <= 0.5\ngini = 0.027\nsamples = 72\nvalue = [71, 1]\nclass = i", fillcolor="#e5833c"] ;
663 -> 667 ;
668 [label="gini = 0.0\nsamples = 68\nvalue = [68, 0]\nclass = i", fillcolor="#e58139"] ;
667 -> 668 ;
669 [label="occupation_Sales <= 0.5\ngini = 0.375\nsamples = 4\nvalue = [3, 1]\nclass = i", fillcolor="#eeab7b"] ;
667 -> 669 ;
670 [label="gini = 0.0\nsamples = 3\nvalue = [3, 0]\nclass = i", fillcolor="#e58139"] ;
669 -> 670 ;
671 [label="gini = 0.0\nsamples = 1\nvalue = [0, 1]\nclass = n", fillcolor="#399de5"] ;
669 -> 671 ;
672 [label="hours-per-week <= 16.0\ngini = 0.444\nsamples = 3\nvalue = [2, 1]\nclass = i", fillcolor="#f2c09c"] ;
660 -> 672 ;
673 [label="gini = 0.0\nsamples = 2\nvalue = [2, 0]\nclass = i", fillcolor="#e58139"] ;
672 -> 673 ;
674 [label="gini = 0.0\nsamples = 1\nvalue = [0, 1]\nclass = n", fillcolor="#399de5"] ;
672 -> 674 ;
675 [label="education_HS-grad <= 0.5\ngini = 0.159\nsamples = 115\nvalue = [105, 10]\nclass = i", fillcolor="#e78d4c"] ;
659 -> 675 ;
676 [label="occupation_Sales <= 0.5\ngini = 0.079\nsamples = 73\nvalue = [70, 3]\nclass = i", fillcolor="#e68641"] ;
675 -> 676 ;
677 [label="workclass_Self-emp-not-inc <= 0.5\ngini = 0.029\nsamples = 67\nvalue = [66, 1]\nclass = i", fillcolor="#e5833c"] ;
676 -> 677 ;
678 [label="gini = 0.0\nsamples = 63\nvalue = [63, 0]\nclass = i", fillcolor="#e58139"] ;
677 -> 678 ;
679 [label="marital-status_Widowed <= 0.5\ngini = 0.375\nsamples = 4\nvalue = [3, 1]\nclass = i", fillcolor="#eeab7b"] ;
677 -> 679 ;
680 [label="gini = 0.0\nsamples = 1\nvalue = [0, 1]\nclass = n", fillcolor="#399de5"] ;
679 -> 680 ;
681 [label="gini = 0.0\nsamples = 3\nvalue = [3, 0]\nclass = i", fillcolor="#e58139"] ;
679 -> 681 ;
682 [label="hours-per-week <= 36.5\ngini = 0.444\nsamples = 6\nvalue = [4, 2]\nclass = i", fillcolor="#f2c09c"] ;
676 -> 682 ;
683 [label="gini = 0.0\nsamples = 2\nvalue = [0, 2]\nclass = n", fillcolor="#399de5"] ;
682 -> 683 ;
684 [label="gini = 0.0\nsamples = 4\nvalue = [4, 0]\nclass = i", fillcolor="#e58139"] ;
682 -> 684 ;
685 [label="fnlwgt <= 116285.0\ngini = 0.278\nsamples = 42\nvalue = [35, 7]\nclass = i", fillcolor="#ea9a61"] ;
675 -> 685 ;
686 [label="gini = 0.0\nsamples = 14\nvalue = [14, 0]\nclass = i", fillcolor="#e58139"] ;
685 -> 686 ;
687 [label="fnlwgt <= 129500.0\ngini = 0.375\nsamples = 28\nvalue = [21, 7]\nclass = i", fillcolor="#eeab7b"] ;
685 -> 687 ;
688 [label="gini = 0.0\nsamples = 2\nvalue = [0, 2]\nclass = n", fillcolor="#399de5"] ;
687 -> 688 ;
689 [label="age <= 85.5\ngini = 0.311\nsamples = 26\nvalue = [21, 5]\nclass = i", fillcolor="#eb9f68"] ;
687 -> 689 ;
690 [label="age <= 69.5\ngini = 0.269\nsamples = 25\nvalue = [21, 4]\nclass = i", fillcolor="#ea995f"] ;
689 -> 690 ;
691 [label="fnlwgt <= 251458.0\ngini = 0.36\nsamples = 17\nvalue = [13, 4]\nclass = i", fillcolor="#eda876"] ;
690 -> 691 ;
692 [label="fnlwgt <= 227430.5\ngini = 0.408\nsamples = 14\nvalue = [10, 4]\nclass = i", fillcolor="#efb388"] ;
691 -> 692 ;
693 [label="fnlwgt <= 189828.5\ngini = 0.355\nsamples = 13\nvalue = [10, 3]\nclass = i", fillcolor="#eda774"] ;
692 -> 693 ;
694 [label="fnlwgt <= 186778.0\ngini = 0.444\nsamples = 9\nvalue = [6, 3]\nclass = i", fillcolor="#f2c09c"] ;
693 -> 694 ;
695 [label="hours-per-week <= 39.0\ngini = 0.375\nsamples = 8\nvalue = [6, 2]\nclass = i", fillcolor="#eeab7b"] ;
694 -> 695 ;
696 [label="gini = 0.0\nsamples = 3\nvalue = [3, 0]\nclass = i", fillcolor="#e58139"] ;
695 -> 696 ;
697 [label="fnlwgt <= 161022.0\ngini = 0.48\nsamples = 5\nvalue = [3, 2]\nclass = i", fillcolor="#f6d5bd"] ;
695 -> 697 ;
698 [label="gini = 0.0\nsamples = 2\nvalue = [2, 0]\nclass = i", fillcolor="#e58139"] ;
697 -> 698 ;
699 [label="occupation_Machine-op-inspct <= 0.5\ngini = 0.444\nsamples = 3\nvalue = [1, 2]\nclass = n", fillcolor="#9ccef2"] ;
697 -> 699 ;
700 [label="gini = 0.0\nsamples = 2\nvalue = [0, 2]\nclass = n", fillcolor="#399de5"] ;
699 -> 700 ;
701 [label="gini = 0.0\nsamples = 1\nvalue = [1, 0]\nclass = i", fillcolor="#e58139"] ;
699 -> 701 ;
702 [label="gini = 0.0\nsamples = 1\nvalue = [0, 1]\nclass = n", fillcolor="#399de5"] ;
694 -> 702 ;
703 [label="gini = 0.0\nsamples = 4\nvalue = [4, 0]\nclass = i", fillcolor="#e58139"] ;
693 -> 703 ;
704 [label="gini = 0.0\nsamples = 1\nvalue = [0, 1]\nclass = n", fillcolor="#399de5"] ;
692 -> 704 ;
705 [label="gini = 0.0\nsamples = 3\nvalue = [3, 0]\nclass = i", fillcolor="#e58139"] ;
691 -> 705 ;
706 [label="gini = 0.0\nsamples = 8\nvalue = [8, 0]\nclass = i", fillcolor="#e58139"] ;
690 -> 706 ;
707 [label="gini = 0.0\nsamples = 1\nvalue = [0, 1]\nclass = n", fillcolor="#399de5"] ;
689 -> 707 ;
708 [label="native-country_Guatemala <= 0.5\ngini = 0.11\nsamples = 120\nvalue = [113, 7]\nclass = i", fillcolor="#e78945"] ;
496 -> 708 ;
709 [label="hours-per-week <= 41.5\ngini = 0.096\nsamples = 119\nvalue = [113, 6]\nclass = i", fillcolor="#e68844"] ;
708 -> 709 ;
710 [label="workclass_Self-emp-not-inc <= 0.5\ngini = 0.082\nsamples = 117\nvalue = [112, 5]\nclass = i", fillcolor="#e68742"] ;
709 -> 710 ;
711 [label="gender_Male <= 0.5\ngini = 0.068\nsamples = 114\nvalue = [110, 4]\nclass = i", fillcolor="#e68640"] ;
710 -> 711 ;
712 [label="marital-status_Never-married <= 0.5\ngini = 0.024\nsamples = 82\nvalue = [81, 1]\nclass = i", fillcolor="#e5833b"] ;
711 -> 712 ;
713 [label="gini = 0.0\nsamples = 77\nvalue = [77, 0]\nclass = i", fillcolor="#e58139"] ;
712 -> 713 ;
714 [label="race_White <= 0.5\ngini = 0.32\nsamples = 5\nvalue = [4, 1]\nclass = i", fillcolor="#eca06a"] ;
712 -> 714 ;
715 [label="gini = 0.0\nsamples = 3\nvalue = [3, 0]\nclass = i", fillcolor="#e58139"] ;
714 -> 715 ;
716 [label="education_HS-grad <= 0.5\ngini = 0.5\nsamples = 2\nvalue = [1, 1]\nclass = i", fillcolor="#ffffff"] ;
714 -> 716 ;
717 [label="gini = 0.0\nsamples = 1\nvalue = [0, 1]\nclass = n", fillcolor="#399de5"] ;
716 -> 717 ;
718 [label="gini = 0.0\nsamples = 1\nvalue = [1, 0]\nclass = i", fillcolor="#e58139"] ;
716 -> 718 ;
719 [label="age <= 63.0\ngini = 0.17\nsamples = 32\nvalue = [29, 3]\nclass = i", fillcolor="#e88e4d"] ;
711 -> 719 ;
720 [label="marital-status_Widowed <= 0.5\ngini = 0.121\nsamples = 31\nvalue = [29, 2]\nclass = i", fillcolor="#e78a47"] ;
719 -> 720 ;
721 [label="native-country_United-States <= 0.5\ngini = 0.067\nsamples = 29\nvalue = [28, 1]\nclass = i", fillcolor="#e68640"] ;
720 -> 721 ;
722 [label="fnlwgt <= 236584.0\ngini = 0.5\nsamples = 2\nvalue = [1, 1]\nclass = i", fillcolor="#ffffff"] ;
721 -> 722 ;
723 [label="gini = 0.0\nsamples = 1\nvalue = [0, 1]\nclass = n", fillcolor="#399de5"] ;
722 -> 723 ;
724 [label="gini = 0.0\nsamples = 1\nvalue = [1, 0]\nclass = i", fillcolor="#e58139"] ;
722 -> 724 ;
725 [label="gini = 0.0\nsamples = 27\nvalue = [27, 0]\nclass = i", fillcolor="#e58139"] ;
721 -> 725 ;
726 [label="fnlwgt <= 110527.0\ngini = 0.5\nsamples = 2\nvalue = [1, 1]\nclass = i", fillcolor="#ffffff"] ;
720 -> 726 ;
727 [label="gini = 0.0\nsamples = 1\nvalue = [0, 1]\nclass = n", fillcolor="#399de5"] ;
726 -> 727 ;
728 [label="gini = 0.0\nsamples = 1\nvalue = [1, 0]\nclass = i", fillcolor="#e58139"] ;
726 -> 728 ;
729 [label="gini = 0.0\nsamples = 1\nvalue = [0, 1]\nclass = n", fillcolor="#399de5"] ;
719 -> 729 ;
730 [label="educational-num <= 10.5\ngini = 0.444\nsamples = 3\nvalue = [2, 1]\nclass = i", fillcolor="#f2c09c"] ;
710 -> 730 ;
731 [label="gini = 0.0\nsamples = 1\nvalue = [0, 1]\nclass = n", fillcolor="#399de5"] ;
730 -> 731 ;
732 [label="gini = 0.0\nsamples = 2\nvalue = [2, 0]\nclass = i", fillcolor="#e58139"] ;
730 -> 732 ;
733 [label="age <= 50.0\ngini = 0.5\nsamples = 2\nvalue = [1, 1]\nclass = i", fillcolor="#ffffff"] ;
709 -> 733 ;
734 [label="gini = 0.0\nsamples = 1\nvalue = [1, 0]\nclass = i", fillcolor="#e58139"] ;
733 -> 734 ;
735 [label="gini = 0.0\nsamples = 1\nvalue = [0, 1]\nclass = n", fillcolor="#399de5"] ;
733 -> 735 ;
736 [label="gini = 0.0\nsamples = 1\nvalue = [0, 1]\nclass = n", fillcolor="#399de5"] ;
708 -> 736 ;
737 [label="relationship_Other-relative <= 0.5\ngini = 0.227\nsamples = 23\nvalue = [20, 3]\nclass = i", fillcolor="#e99457"] ;
495 -> 737 ;
738 [label="age <= 56.5\ngini = 0.165\nsamples = 22\nvalue = [20, 2]\nclass = i", fillcolor="#e88e4d"] ;
737 -> 738 ;
739 [label="gini = 0.0\nsamples = 14\nvalue = [14, 0]\nclass = i", fillcolor="#e58139"] ;
738 -> 739 ;
740 [label="age <= 59.5\ngini = 0.375\nsamples = 8\nvalue = [6, 2]\nclass = i", fillcolor="#eeab7b"] ;
738 -> 740 ;
741 [label="gini = 0.0\nsamples = 1\nvalue = [0, 1]\nclass = n", fillcolor="#399de5"] ;
740 -> 741 ;
742 [label="fnlwgt <= 101279.5\ngini = 0.245\nsamples = 7\nvalue = [6, 1]\nclass = i", fillcolor="#e9965a"] ;
740 -> 742 ;
743 [label="educational-num <= 9.5\ngini = 0.5\nsamples = 2\nvalue = [1, 1]\nclass = i", fillcolor="#ffffff"] ;
742 -> 743 ;
744 [label="gini = 0.0\nsamples = 1\nvalue = [1, 0]\nclass = i", fillcolor="#e58139"] ;
743 -> 744 ;
745 [label="gini = 0.0\nsamples = 1\nvalue = [0, 1]\nclass = n", fillcolor="#399de5"] ;
743 -> 745 ;
746 [label="gini = 0.0\nsamples = 5\nvalue = [5, 0]\nclass = i", fillcolor="#e58139"] ;
742 -> 746 ;
747 [label="gini = 0.0\nsamples = 1\nvalue = [0, 1]\nclass = n", fillcolor="#399de5"] ;
737 -> 747 ;
748 [label="relationship_Not-in-family <= 0.5\ngini = 0.5\nsamples = 2\nvalue = [1, 1]\nclass = i", fillcolor="#ffffff"] ;
490 -> 748 ;
749 [label="gini = 0.0\nsamples = 1\nvalue = [0, 1]\nclass = n", fillcolor="#399de5"] ;
748 -> 749 ;
750 [label="gini = 0.0\nsamples = 1\nvalue = [1, 0]\nclass = i", fillcolor="#e58139"] ;
748 -> 750 ;
751 [label="relationship_Wife <= 0.5\ngini = 0.105\nsamples = 412\nvalue = [389, 23]\nclass = i", fillcolor="#e78845"] ;
489 -> 751 ;
752 [label="native-country_Cuba <= 0.5\ngini = 0.101\nsamples = 411\nvalue = [389, 22]\nclass = i", fillcolor="#e68844"] ;
751 -> 752 ;
753 [label="fnlwgt <= 94604.5\ngini = 0.097\nsamples = 409\nvalue = [388, 21]\nclass = i", fillcolor="#e68844"] ;
752 -> 753 ;
754 [label="fnlwgt <= 92188.5\ngini = 0.219\nsamples = 64\nvalue = [56, 8]\nclass = i", fillcolor="#e99355"] ;
753 -> 754 ;
755 [label="education_Some-college <= 0.5\ngini = 0.175\nsamples = 62\nvalue = [56, 6]\nclass = i", fillcolor="#e88e4e"] ;
754 -> 755 ;
756 [label="fnlwgt <= 81744.0\ngini = 0.091\nsamples = 42\nvalue = [40, 2]\nclass = i", fillcolor="#e68743"] ;
755 -> 756 ;
757 [label="age <= 51.0\ngini = 0.057\nsamples = 34\nvalue = [33, 1]\nclass = i", fillcolor="#e6853f"] ;
756 -> 757 ;
758 [label="gini = 0.0\nsamples = 23\nvalue = [23, 0]\nclass = i", fillcolor="#e58139"] ;
757 -> 758 ;
759 [label="age <= 53.0\ngini = 0.165\nsamples = 11\nvalue = [10, 1]\nclass = i", fillcolor="#e88e4d"] ;
757 -> 759 ;
760 [label="fnlwgt <= 37185.5\ngini = 0.5\nsamples = 2\nvalue = [1, 1]\nclass = i", fillcolor="#ffffff"] ;
759 -> 760 ;
761 [label="gini = 0.0\nsamples = 1\nvalue = [1, 0]\nclass = i", fillcolor="#e58139"] ;
760 -> 761 ;
762 [label="gini = 0.0\nsamples = 1\nvalue = [0, 1]\nclass = n", fillcolor="#399de5"] ;
760 -> 762 ;
763 [label="gini = 0.0\nsamples = 9\nvalue = [9, 0]\nclass = i", fillcolor="#e58139"] ;
759 -> 763 ;
764 [label="fnlwgt <= 85951.0\ngini = 0.219\nsamples = 8\nvalue = [7, 1]\nclass = i", fillcolor="#e99355"] ;
756 -> 764 ;
765 [label="gini = 0.0\nsamples = 1\nvalue = [0, 1]\nclass = n", fillcolor="#399de5"] ;
764 -> 765 ;
766 [label="gini = 0.0\nsamples = 7\nvalue = [7, 0]\nclass = i", fillcolor="#e58139"] ;
764 -> 766 ;
767 [label="hours-per-week <= 41.5\ngini = 0.32\nsamples = 20\nvalue = [16, 4]\nclass = i", fillcolor="#eca06a"] ;
755 -> 767 ;
768 [label="relationship_Unmarried <= 0.5\ngini = 0.266\nsamples = 19\nvalue = [16, 3]\nclass = i", fillcolor="#ea995e"] ;
767 -> 768 ;
769 [label="age <= 46.5\ngini = 0.124\nsamples = 15\nvalue = [14, 1]\nclass = i", fillcolor="#e78a47"] ;
768 -> 769 ;
770 [label="gini = 0.0\nsamples = 12\nvalue = [12, 0]\nclass = i", fillcolor="#e58139"] ;
769 -> 770 ;
771 [label="workclass_Private <= 0.5\ngini = 0.444\nsamples = 3\nvalue = [2, 1]\nclass = i", fillcolor="#f2c09c"] ;
769 -> 771 ;
772 [label="gini = 0.0\nsamples = 2\nvalue = [2, 0]\nclass = i", fillcolor="#e58139"] ;
771 -> 772 ;
773 [label="gini = 0.0\nsamples = 1\nvalue = [0, 1]\nclass = n", fillcolor="#399de5"] ;
771 -> 773 ;
774 [label="fnlwgt <= 32117.0\ngini = 0.5\nsamples = 4\nvalue = [2, 2]\nclass = i", fillcolor="#ffffff"] ;
768 -> 774 ;
775 [label="gini = 0.0\nsamples = 1\nvalue = [1, 0]\nclass = i", fillcolor="#e58139"] ;
774 -> 775 ;
776 [label="native-country_United-States <= 0.5\ngini = 0.444\nsamples = 3\nvalue = [1, 2]\nclass = n", fillcolor="#9ccef2"] ;
774 -> 776 ;
777 [label="gini = 0.0\nsamples = 1\nvalue = [1, 0]\nclass = i", fillcolor="#e58139"] ;
776 -> 777 ;
778 [label="gini = 0.0\nsamples = 2\nvalue = [0, 2]\nclass = n", fillcolor="#399de5"] ;
776 -> 778 ;
779 [label="gini = 0.0\nsamples = 1\nvalue = [0, 1]\nclass = n", fillcolor="#399de5"] ;
767 -> 779 ;
780 [label="gini = 0.0\nsamples = 2\nvalue = [0, 2]\nclass = n", fillcolor="#399de5"] ;
754 -> 780 ;
781 [label="race_Other <= 0.5\ngini = 0.073\nsamples = 345\nvalue = [332, 13]\nclass = i", fillcolor="#e68641"] ;
753 -> 781 ;
782 [label="education_Some-college <= 0.5\ngini = 0.068\nsamples = 342\nvalue = [330, 12]\nclass = i", fillcolor="#e68640"] ;
781 -> 782 ;
783 [label="fnlwgt <= 190711.0\ngini = 0.044\nsamples = 267\nvalue = [261, 6]\nclass = i", fillcolor="#e6843e"] ;
782 -> 783 ;
784 [label="fnlwgt <= 190571.0\ngini = 0.077\nsamples = 125\nvalue = [120, 5]\nclass = i", fillcolor="#e68641"] ;
783 -> 784 ;
785 [label="fnlwgt <= 179858.5\ngini = 0.062\nsamples = 124\nvalue = [120, 4]\nclass = i", fillcolor="#e68540"] ;
784 -> 785 ;
786 [label="age <= 58.5\ngini = 0.019\nsamples = 105\nvalue = [104, 1]\nclass = i", fillcolor="#e5823b"] ;
785 -> 786 ;
787 [label="gini = 0.0\nsamples = 85\nvalue = [85, 0]\nclass = i", fillcolor="#e58139"] ;
786 -> 787 ;
788 [label="age <= 60.0\ngini = 0.095\nsamples = 20\nvalue = [19, 1]\nclass = i", fillcolor="#e68843"] ;
786 -> 788 ;
789 [label="fnlwgt <= 136700.0\ngini = 0.444\nsamples = 3\nvalue = [2, 1]\nclass = i", fillcolor="#f2c09c"] ;
788 -> 789 ;
790 [label="gini = 0.0\nsamples = 1\nvalue = [0, 1]\nclass = n", fillcolor="#399de5"] ;
789 -> 790 ;
791 [label="gini = 0.0\nsamples = 2\nvalue = [2, 0]\nclass = i", fillcolor="#e58139"] ;
789 -> 791 ;
792 [label="gini = 0.0\nsamples = 17\nvalue = [17, 0]\nclass = i", fillcolor="#e58139"] ;
788 -> 792 ;
793 [label="fnlwgt <= 180278.0\ngini = 0.266\nsamples = 19\nvalue = [16, 3]\nclass = i", fillcolor="#ea995e"] ;
785 -> 793 ;
794 [label="gini = 0.0\nsamples = 1\nvalue = [0, 1]\nclass = n", fillcolor="#399de5"] ;
793 -> 794 ;
795 [label="marital-status_Separated <= 0.5\ngini = 0.198\nsamples = 18\nvalue = [16, 2]\nclass = i", fillcolor="#e89152"] ;
793 -> 795 ;
796 [label="fnlwgt <= 181484.5\ngini = 0.124\nsamples = 15\nvalue = [14, 1]\nclass = i", fillcolor="#e78a47"] ;
795 -> 796 ;
797 [label="relationship_Own-child <= 0.5\ngini = 0.444\nsamples = 3\nvalue = [2, 1]\nclass = i", fillcolor="#f2c09c"] ;
796 -> 797 ;
798 [label="gini = 0.0\nsamples = 2\nvalue = [2, 0]\nclass = i", fillcolor="#e58139"] ;
797 -> 798 ;
799 [label="gini = 0.0\nsamples = 1\nvalue = [0, 1]\nclass = n", fillcolor="#399de5"] ;
797 -> 799 ;
800 [label="gini = 0.0\nsamples = 12\nvalue = [12, 0]\nclass = i", fillcolor="#e58139"] ;
796 -> 800 ;
801 [label="fnlwgt <= 188755.0\ngini = 0.444\nsamples = 3\nvalue = [2, 1]\nclass = i", fillcolor="#f2c09c"] ;
795 -> 801 ;
802 [label="gini = 0.0\nsamples = 2\nvalue = [2, 0]\nclass = i", fillcolor="#e58139"] ;
801 -> 802 ;
803 [label="gini = 0.0\nsamples = 1\nvalue = [0, 1]\nclass = n", fillcolor="#399de5"] ;
801 -> 803 ;
804 [label="gini = 0.0\nsamples = 1\nvalue = [0, 1]\nclass = n", fillcolor="#399de5"] ;
784 -> 804 ;
805 [label="age <= 49.5\ngini = 0.014\nsamples = 142\nvalue = [141, 1]\nclass = i", fillcolor="#e5823a"] ;
783 -> 805 ;
806 [label="gini = 0.0\nsamples = 90\nvalue = [90, 0]\nclass = i", fillcolor="#e58139"] ;
805 -> 806 ;
807 [label="age <= 50.5\ngini = 0.038\nsamples = 52\nvalue = [51, 1]\nclass = i", fillcolor="#e6833d"] ;
805 -> 807 ;
808 [label="education_HS-grad <= 0.5\ngini = 0.245\nsamples = 7\nvalue = [6, 1]\nclass = i", fillcolor="#e9965a"] ;
807 -> 808 ;
809 [label="gini = 0.0\nsamples = 4\nvalue = [4, 0]\nclass = i", fillcolor="#e58139"] ;
808 -> 809 ;
810 [label="fnlwgt <= 266673.5\ngini = 0.444\nsamples = 3\nvalue = [2, 1]\nclass = i", fillcolor="#f2c09c"] ;
808 -> 810 ;
811 [label="gini = 0.0\nsamples = 1\nvalue = [0, 1]\nclass = n", fillcolor="#399de5"] ;
810 -> 811 ;
812 [label="gini = 0.0\nsamples = 2\nvalue = [2, 0]\nclass = i", fillcolor="#e58139"] ;
810 -> 812 ;
813 [label="gini = 0.0\nsamples = 45\nvalue = [45, 0]\nclass = i", fillcolor="#e58139"] ;
807 -> 813 ;
814 [label="hours-per-week <= 9.0\ngini = 0.147\nsamples = 75\nvalue = [69, 6]\nclass = i", fillcolor="#e78c4a"] ;
782 -> 814 ;
815 [label="gini = 0.0\nsamples = 1\nvalue = [0, 1]\nclass = n", fillcolor="#399de5"] ;
814 -> 815 ;
816 [label="workclass_Private <= 0.5\ngini = 0.126\nsamples = 74\nvalue = [69, 5]\nclass = i", fillcolor="#e78a47"] ;
814 -> 816 ;
817 [label="gini = 0.0\nsamples = 28\nvalue = [28, 0]\nclass = i", fillcolor="#e58139"] ;
816 -> 817 ;
818 [label="fnlwgt <= 195389.5\ngini = 0.194\nsamples = 46\nvalue = [41, 5]\nclass = i", fillcolor="#e89051"] ;
816 -> 818 ;
819 [label="fnlwgt <= 127734.0\ngini = 0.08\nsamples = 24\nvalue = [23, 1]\nclass = i", fillcolor="#e68642"] ;
818 -> 819 ;
820 [label="fnlwgt <= 117611.5\ngini = 0.278\nsamples = 6\nvalue = [5, 1]\nclass = i", fillcolor="#ea9a61"] ;
819 -> 820 ;
821 [label="gini = 0.0\nsamples = 5\nvalue = [5, 0]\nclass = i", fillcolor="#e58139"] ;
820 -> 821 ;
822 [label="gini = 0.0\nsamples = 1\nvalue = [0, 1]\nclass = n", fillcolor="#399de5"] ;
820 -> 822 ;
823 [label="gini = 0.0\nsamples = 18\nvalue = [18, 0]\nclass = i", fillcolor="#e58139"] ;
819 -> 823 ;
824 [label="fnlwgt <= 211587.0\ngini = 0.298\nsamples = 22\nvalue = [18, 4]\nclass = i", fillcolor="#eb9d65"] ;
818 -> 824 ;
825 [label="marital-status_Widowed <= 0.5\ngini = 0.375\nsamples = 4\nvalue = [1, 3]\nclass = n", fillcolor="#7bbeee"] ;
824 -> 825 ;
826 [label="gini = 0.0\nsamples = 3\nvalue = [0, 3]\nclass = n", fillcolor="#399de5"] ;
825 -> 826 ;
827 [label="gini = 0.0\nsamples = 1\nvalue = [1, 0]\nclass = i", fillcolor="#e58139"] ;
825 -> 827 ;
828 [label="fnlwgt <= 338674.0\ngini = 0.105\nsamples = 18\nvalue = [17, 1]\nclass = i", fillcolor="#e78845"] ;
824 -> 828 ;
829 [label="gini = 0.0\nsamples = 13\nvalue = [13, 0]\nclass = i", fillcolor="#e58139"] ;
828 -> 829 ;
830 [label="relationship_Unmarried <= 0.5\ngini = 0.32\nsamples = 5\nvalue = [4, 1]\nclass = i", fillcolor="#eca06a"] ;
828 -> 830 ;
831 [label="gini = 0.0\nsamples = 4\nvalue = [4, 0]\nclass = i", fillcolor="#e58139"] ;
830 -> 831 ;
832 [label="gini = 0.0\nsamples = 1\nvalue = [0, 1]\nclass = n", fillcolor="#399de5"] ;
830 -> 832 ;
833 [label="education_HS-grad <= 0.5\ngini = 0.444\nsamples = 3\nvalue = [2, 1]\nclass = i", fillcolor="#f2c09c"] ;
781 -> 833 ;
834 [label="gini = 0.0\nsamples = 2\nvalue = [2, 0]\nclass = i", fillcolor="#e58139"] ;
833 -> 834 ;
835 [label="gini = 0.0\nsamples = 1\nvalue = [0, 1]\nclass = n", fillcolor="#399de5"] ;
833 -> 835 ;
836 [label="relationship_Not-in-family <= 0.5\ngini = 0.5\nsamples = 2\nvalue = [1, 1]\nclass = i", fillcolor="#ffffff"] ;
752 -> 836 ;
837 [label="gini = 0.0\nsamples = 1\nvalue = [1, 0]\nclass = i", fillcolor="#e58139"] ;
836 -> 837 ;
838 [label="gini = 0.0\nsamples = 1\nvalue = [0, 1]\nclass = n", fillcolor="#399de5"] ;
836 -> 838 ;
839 [label="gini = 0.0\nsamples = 1\nvalue = [0, 1]\nclass = n", fillcolor="#399de5"] ;
751 -> 839 ;
840 [label="native-country_Ireland <= 0.5\ngini = 0.121\nsamples = 339\nvalue = [317, 22]\nclass = i", fillcolor="#e78a47"] ;
488 -> 840 ;
841 [label="fnlwgt <= 23431.5\ngini = 0.117\nsamples = 338\nvalue = [317, 21]\nclass = i", fillcolor="#e78946"] ;
840 -> 841 ;
842 [label="race_White <= 0.5\ngini = 0.5\nsamples = 4\nvalue = [2, 2]\nclass = i", fillcolor="#ffffff"] ;
841 -> 842 ;
843 [label="gini = 0.0\nsamples = 2\nvalue = [2, 0]\nclass = i", fillcolor="#e58139"] ;
842 -> 843 ;
844 [label="gini = 0.0\nsamples = 2\nvalue = [0, 2]\nclass = n", fillcolor="#399de5"] ;
842 -> 844 ;
845 [label="education_Some-college <= 0.5\ngini = 0.107\nsamples = 334\nvalue = [315, 19]\nclass = i", fillcolor="#e78945"] ;
841 -> 845 ;
846 [label="race_Asian-Pac-Islander <= 0.5\ngini = 0.147\nsamples = 200\nvalue = [184, 16]\nclass = i", fillcolor="#e78c4a"] ;
845 -> 846 ;
847 [label="workclass_Private <= 0.5\ngini = 0.14\nsamples = 198\nvalue = [183, 15]\nclass = i", fillcolor="#e78b49"] ;
846 -> 847 ;
848 [label="fnlwgt <= 154396.0\ngini = 0.056\nsamples = 69\nvalue = [67, 2]\nclass = i", fillcolor="#e6853f"] ;
847 -> 848 ;
849 [label="fnlwgt <= 140177.0\ngini = 0.147\nsamples = 25\nvalue = [23, 2]\nclass = i", fillcolor="#e78c4a"] ;
848 -> 849 ;
850 [label="gini = 0.0\nsamples = 22\nvalue = [22, 0]\nclass = i", fillcolor="#e58139"] ;
849 -> 850 ;
